Language model created by QuickLM on Sun Jan 29 20:08:15 EST 2017
Copyright (c) 1996-2010 Carnegie Mellon University and Alexander I. Rudnicky

The model is in standard ARPA format, designed by Doug Paul while he was at MITRE.

The code that was used to produce this language model is available in Open Source.
Please visit http://www.speech.cs.cmu.edu/tools/ for more information

The (fixed) discount mass is 0.5. The backoffs are computed using the ratio method.
This model based on a corpus of 264 sentences and 139 words

\data\
ngram 1=139
ngram 2=1752
ngram 3=3348

\1-grams:
-1.6235 </s> -0.3010
-4.0451 <breath> -0.3010
-1.6235 <s> -0.0803
-4.0451 <sil> -0.2943
-3.2669 AGAIN -0.2936
-1.9482 ALPHA -0.1681
-3.1420 AND -0.2654
-2.5266 APPEND -0.2099
-2.3823 ASSIGN -0.2189
-2.6137 BACK -0.2747
-3.1420 BACKWARD -0.2936
-3.3461 BANG -0.2907
-2.9311 BIGBACK -0.2893
-3.0037 BIGWORD -0.2895
-2.8410 BRACKET -0.2799
-2.5979 BRAVO -0.2197
-2.1878 CAPITALIZE -0.2215
-3.0451 CARROT -0.2939
-2.0628 CHARLIE -0.1962
-2.2322 COLON -0.2441
-2.4430 COMMA -0.2700
-3.0037 COMPLETE -0.2652
-3.4430 COPY -0.2961
-3.2669 CURLY -0.2823
-3.5680 CUT -0.2971
-3.0908 DEFINE -0.2728
-2.2892 DELETE -0.2684
-2.1938 DELTA -0.1869
-2.5979 DOLLA -0.2872
-2.3730 DOT -0.2177
-2.1530 DOWN -0.2566
-3.4430 EAST -0.3001
-1.7249 ECHO -0.1436
-3.0451 EGAP -0.2919
-2.9311 EIGHT -0.2686
-3.4430 ELIF -0.2920
-3.2000 ELSE -0.2786
-3.0037 END -0.2848
-1.8548 ENTER -0.1721
-2.5680 EQUALS -0.2611
-1.9482 ESCAPE -0.2494
-3.3461 FALSE -0.2883
-3.2669 FILEBEGIN -0.2839
-2.7229 FILEEND -0.2639
-2.8990 FIVE -0.2740
-2.7441 FORWARD -0.2867
-2.8990 FOUR -0.2696
-2.2255 FOXTROT -0.2145
-2.4116 GOLF -0.1994
-2.7229 GOTO -0.2786
-3.7441 GREATER -0.2980
-3.4430 HIGH -0.2972
-2.2742 HOTEL -0.2079
-3.1420 HSALS -0.2811
-3.5680 HUG -0.2923
-2.7898 IF -0.2440
-4.0451 INDA -0.2961
-1.7826 INDIA -0.1899
-2.1938 INSERT -0.1830
-3.0451 ITERATE -0.2731
-2.6834 JULIET -0.2454
-3.1420 KEES -0.2847
-2.7027 KILO -0.2340
-2.3919 LEFT -0.2595
-3.4430 LESSER -0.2765
-1.9482 LIMA -0.1782
-2.9311 LISTEN -0.2790
-4.0451 LLEPS -0.2982
-3.7441 LOW -0.2993
-2.8690 MATCH -0.2561
-3.7441 MIC -0.2979
-3.4430 MIDDLE -0.2863
-2.1106 MIKE -0.2109
-3.0451 MINUS -0.2808
-2.2062 NERAP -0.2440
-3.0037 NETSIL -0.2605
-2.4430 NEWLINE -0.2185
-3.0451 NEXT -0.2862
-3.0037 NINE -0.2772
-3.5680 NORTH -0.3001
-1.8146 NOVEMBER -0.1670
-2.5680 ONE -0.2712
-3.1420 OR -0.2598
-1.9245 OSCAR -0.1582
-2.8146 PAGE -0.2940
-2.1475 PAPA -0.1820
-2.1759 PAREN -0.1993
-3.2669 PASTE -0.2750
-2.6649 PLUS -0.2496
-2.9659 PREVIOUS -0.2566
-2.7441 QUEBEC -0.2725
-3.2669 QUESTION -0.2837
-2.7898 QUIT -0.2843
-2.2389 QUOTE -0.2048
-4.0451 REDO -0.2961
-2.8690 REPLACE -0.2622
-3.4430 RETURN -0.2857
-2.2457 RIGHT -0.2667
-1.9552 ROMEO -0.1870
-2.4888 SAVE -0.2821
-2.7027 SCORE -0.2526
-2.8410 SEEK -0.2636
-2.9311 SEVEN -0.2800
-3.2669 SHIFT -0.2807
-1.7229 SHOOP -0.1384
-1.9345 SIERRA -0.1658
-3.0037 SIX -0.2767
-2.7027 SLASH -0.2600
-2.8990 SNORE -0.2901
-2.6834 SOUTH -0.2961
-1.5060 SPACE -0.1088
-4.0451 SPELL -0.3008
-3.0908 TAB -0.2867
-1.8045 TANGO -0.1547
-2.8690 TEKCARB -0.2584
-3.4430 TFIHS -0.2822
-2.7229 THREE -0.2826
-2.5399 TICK -0.2198
-3.2000 TILDE -0.2751
-3.5680 TIMES -0.2855
-3.4430 TRUE -0.2786
-2.6649 TWO -0.2789
-3.0908 UNDO -0.2937
-2.4016 UNIFORM -0.2186
-2.1818 UP -0.2453
-2.5537 VICTOR -0.2255
-3.4430 VISUALBLOCK -0.2925
-3.0451 VISUALLINE -0.2938
-2.9311 VISUALMODE -0.2835
-3.0037 WAKE -0.2927
-3.4430 WEST -0.2988
-3.2000 WHILE -0.2803
-2.3127 WHISKEY -0.2064
-2.4116 WORD -0.2759
-2.2457 XRAY -0.2194
-2.7898 YANKEE -0.2470
-3.2669 YLRUC -0.2827
-2.6137 ZERO -0.2503
-2.5979 ZULU -0.2545

\2-grams:
-0.3010 <breath> <sil> 0.0000
-1.8775 <s> ALPHA -0.2232
-2.2455 <s> APPEND -0.2596
-2.4216 <s> ASSIGN -0.2717
-2.7226 <s> BACK -0.2314
-2.7226 <s> BACKWARD -0.2730
-2.7226 <s> BIGBACK -0.2840
-2.4216 <s> BIGWORD -0.2374
-2.4216 <s> BRACKET -0.2109
-2.4216 <s> BRAVO -0.2771
-2.2455 <s> CAPITALIZE -0.1680
-2.1206 <s> CHARLIE -0.2272
-2.4216 <s> COLON -0.1461
-2.4216 <s> COMMA -0.0414
-2.7226 <s> CURLY -0.2632
-2.7226 <s> DELETE -0.2972
-2.1206 <s> DELTA -0.1616
-2.2455 <s> DOLLA -0.2518
-2.2455 <s> DOWN -0.2083
-1.6435 <s> ECHO -0.2023
-2.4216 <s> EGAP -0.2304
-2.7226 <s> EIGHT -0.1871
-1.8775 <s> ENTER -0.2410
-2.7226 <s> EQUALS -0.2937
-1.8195 <s> ESCAPE -0.1931
-2.7226 <s> FILEBEGIN -0.2632
-1.8775 <s> FILEEND -0.1549
-2.4216 <s> FIVE -0.2688
-2.1206 <s> FORWARD -0.2175
-2.7226 <s> FOUR -0.2852
-2.7226 <s> FOXTROT -0.2258
-2.7226 <s> GOLF -0.2803
-2.2455 <s> HIGH 0.0000
-2.7226 <s> HOTEL -0.2666
-2.1206 <s> IF -0.2218
-1.8775 <s> INDIA -0.1249
-1.6812 <s> INSERT -0.2169
-2.7226 <s> ITERATE -0.2788
-2.7226 <s> KEES -0.2730
-2.2455 <s> LEFT -0.1597
-2.7226 <s> LESSER -0.0969
-2.0237 <s> LIMA -0.1772
-2.4216 <s> LOW 0.0000
-2.7226 <s> MATCH -0.2863
-2.1206 <s> MIKE -0.2085
-2.1206 <s> NERAP -0.1986
-2.4216 <s> NEWLINE -0.2900
-2.7226 <s> NEXT -0.2788
-2.4216 <s> NINE -0.2596
-2.7226 <s> NOVEMBER -0.2946
-2.1206 <s> ONE -0.2131
-1.9445 <s> OSCAR -0.1996
-1.9445 <s> PAGE -0.1120
-2.0237 <s> PAPA -0.2062
-2.0237 <s> PAREN -0.2136
-2.7226 <s> PLUS -0.2825
-2.7226 <s> PREVIOUS -0.2825
-2.1206 <s> QUOTE -0.2620
-2.0237 <s> RIGHT -0.1451
-1.9445 <s> ROMEO -0.2154
-2.7226 <s> SAVE -0.2698
-1.9445 <s> SHOOP -0.1563
-1.9445 <s> SIERRA -0.1948
-2.7226 <s> SIX -0.2374
-2.2455 <s> SLASH -0.2486
-1.7684 <s> SPACE -0.2434
-2.2455 <s> TANGO -0.2713
-2.1206 <s> THREE -0.2460
-2.7226 <s> TICK -0.2802
-2.2455 <s> TWO -0.2218
-2.7226 <s> UNDO -0.2499
-1.9445 <s> UP -0.2370
-2.7226 <s> VICTOR -0.2568
-2.4216 <s> VISUALBLOCK -0.0969
-1.8775 <s> VISUALLINE -0.0414
-2.2455 <s> VISUALMODE -0.0902
-1.7226 <s> WAKE -0.0378
-2.7226 <s> WEST -0.2430
-2.7226 <s> WHILE -0.1963
-2.4216 <s> WHISKEY -0.2499
-2.7226 <s> WORD -0.2299
-2.2455 <s> XRAY -0.2725
-0.3010 <sil> NOVEMBER -0.2972
-1.0792 AGAIN AGAIN -0.2632
-1.0792 AGAIN CAPITALIZE -0.2980
-1.0792 AGAIN INSERT -0.2980
-1.0792 AGAIN PREVIOUS -0.2825
-1.0792 AGAIN REPLACE -0.2863
-1.0792 AGAIN VISUALMODE -0.2840
-2.3979 ALPHA </s> -0.3010
-2.3979 ALPHA BRAVO -0.2771
-1.7959 ALPHA CHARLIE -0.2754
-2.3979 ALPHA COLON -0.1509
-1.7959 ALPHA DELTA -0.2791
-2.3979 ALPHA DOT -0.2869
-2.3979 ALPHA ENTER -0.2982
-2.0969 ALPHA ESCAPE -0.2610
-2.3979 ALPHA GOLF -0.2960
-2.0969 ALPHA INDIA -0.2029
-2.0969 ALPHA KILO -0.2596
-1.3979 ALPHA LIMA -0.1976
-1.6198 ALPHA MIKE -0.2750
-1.1192 ALPHA NOVEMBER -0.1795
-2.3979 ALPHA OSCAR -0.2961
-1.3188 ALPHA PAPA -0.2423
-2.3979 ALPHA QUOTE -0.2942
-1.3188 ALPHA ROMEO -0.2323
-2.3979 ALPHA SCORE -0.2910
-1.7959 ALPHA SHOOP -0.1592
-1.4949 ALPHA SIERRA -0.2568
-2.3979 ALPHA SOUTH -0.2915
-1.3979 ALPHA SPACE -0.2412
-1.2840 ALPHA TANGO -0.2082
-2.0969 ALPHA TICK -0.2583
-2.0969 ALPHA VICTOR -0.2246
-2.0969 ALPHA XRAY -0.2941
-2.3979 ALPHA YANKEE -0.2888
-1.2041 AND ALPHA -0.2833
-1.2041 AND BRAVO -0.2932
-0.9031 AND CHARLIE -0.2872
-1.2041 AND ENTER -0.2795
-1.2041 AND ESCAPE -0.2975
-0.9031 AND SPACE -0.2941
-1.5185 APPEND </s> -0.3010
-1.3424 APPEND COLON -0.1114
-1.8195 APPEND COMMA -0.0414
-1.8195 APPEND CURLY -0.2632
-1.3424 APPEND ENTER -0.2940
-1.8195 APPEND GOTO -0.2906
-1.8195 APPEND KILO -0.2910
-1.8195 APPEND LIMA -0.2475
-1.2175 APPEND NERAP -0.2256
-1.8195 APPEND NOVEMBER -0.2679
-1.8195 APPEND OSCAR -0.2977
-1.5185 APPEND PAREN -0.2951
-1.8195 APPEND PASTE -0.2632
-1.8195 APPEND QUEBEC -0.2175
-1.8195 APPEND QUOTE -0.2976
-1.8195 APPEND ROMEO -0.2737
-1.8195 APPEND SHOOP -0.1621
-1.8195 APPEND SIERRA -0.2511
-1.3424 APPEND SPACE -0.2778
-1.5185 APPEND TRUE -0.1761
-1.8195 APPEND WHISKEY -0.2929
-1.6628 ASSIGN </s> -0.3010
-1.6628 ASSIGN BRACKET -0.2730
-1.9638 ASSIGN CHARLIE -0.2988
-1.6628 ASSIGN ESCAPE -0.2253
-1.9638 ASSIGN FALSE -0.2041
-1.9638 ASSIGN FOUR -0.2852
-1.2648 ASSIGN FOXTROT -0.1805
-1.6628 ASSIGN GOLF -0.2239
-1.9638 ASSIGN JULIET -0.2817
-1.2648 ASSIGN KILO -0.2016
-1.4867 ASSIGN LIMA -0.1749
-1.6628 ASSIGN MIKE -0.2830
-1.9638 ASSIGN NOVEMBER -0.2998
-1.9638 ASSIGN ONE -0.2937
-1.9638 ASSIGN OSCAR -0.2910
-1.6628 ASSIGN QUOTE -0.2545
-1.9638 ASSIGN ROMEO -0.2282
-1.9638 ASSIGN SHOOP -0.1621
-1.9638 ASSIGN SIERRA -0.2511
-1.6628 ASSIGN TICK -0.2872
-1.9638 ASSIGN TRUE -0.2430
-1.9638 ASSIGN TWO -0.2533
-1.6628 ASSIGN WHISKEY -0.2676
-1.3617 ASSIGN ZERO -0.2499
-1.9638 ASSIGN ZULU -0.2852
-1.4314 BACK </s> -0.3010
-0.8293 BACK BACK -0.1249
-1.7324 BACK BIGBACK -0.2478
-1.7324 BACK COPY 0.0000
-1.2553 BACK DELETE -0.2218
-1.7324 BACK DOWN -0.2982
-1.7324 BACK END -0.2808
-0.9542 BACK INSERT -0.2525
-1.7324 BACK TWO -0.2919
-1.7324 BACK VISUALMODE -0.2663
-1.7324 BACK XRAY -0.2976
-1.7324 BACK ZERO -0.2846
-1.2041 BACKWARD BACKWARD -0.2730
-1.2041 BACKWARD NETSIL -0.2596
-1.2041 BACKWARD QUIT -0.1597
-1.2041 BACKWARD SNORE -0.0300
-1.2041 BACKWARD THREE -0.2798
-0.9031 BACKWARD UP -0.1974
-1.2041 BACKWARD WORD -0.2908
-1.0000 BANG ENTER -0.2795
-0.6990 BANG EQUALS -0.1357
-1.0000 BANG LLEPS 0.0000
-1.0000 BANG PAREN -0.2981
-1.4150 BIGBACK BACK -0.2762
-0.8129 BIGBACK BIGBACK -0.1871
-1.4150 BIGBACK DELETE -0.2933
-0.9379 BIGBACK INSERT -0.2660
-1.4150 BIGBACK RIGHT -0.1919
-1.4150 BIGBACK UNDO -0.2499
-1.4150 BIGBACK VISUALMODE -0.2285
-1.4150 BIGBACK WORD -0.2299
-1.3424 BIGWORD BIGBACK -0.2840
-0.8653 BIGWORD BIGWORD -0.1891
-1.3424 BIGWORD INSERT -0.2886
-1.3424 BIGWORD LEFT -0.1597
-1.3424 BIGWORD MATCH -0.2863
-0.8653 BIGWORD RIGHT -0.1249
-1.3424 BIGWORD UP -0.2797
-1.5051 BRACKET BRACKET -0.2872
-1.5051 BRACKET DELTA -0.2949
-1.5051 BRACKET FALSE -0.2553
-0.8062 BRACKET INDIA -0.2103
-1.5051 BRACKET QUOTE -0.2872
-1.5051 BRACKET RIGHT -0.1919
-1.5051 BRACKET TEKCARB -0.2553
-1.0280 BRACKET TICK -0.2730
-1.5051 BRACKET TWO -0.2919
-1.5051 BRACKET WHISKEY -0.2970
-1.7482 BRAVO ASSIGN -0.2963
-1.7482 BRAVO DELTA -0.2980
-1.4472 BRAVO DOT -0.2724
-1.4472 BRAVO ECHO -0.2742
-1.7482 BRAVO ENTER -0.2982
-1.7482 BRAVO ESCAPE -0.2975
-1.7482 BRAVO INDA 0.0000
-1.7482 BRAVO INDIA -0.2975
-1.7482 BRAVO MIKE -0.2985
-1.7482 BRAVO NERAP -0.2181
-1.7482 BRAVO NEXT -0.2788
-1.4472 BRAVO OSCAR -0.2910
-1.7482 BRAVO QUOTE -0.2907
-1.2711 BRAVO ROMEO -0.2525
-1.7482 BRAVO SCORE -0.2808
-1.7482 BRAVO SIERRA -0.2732
-1.7482 BRAVO SNORE -0.0300
-1.2711 BRAVO SPACE -0.2798
-1.4472 BRAVO UNIFORM -0.2199
-1.7482 BRAVO YANKEE -0.2888
-1.8573 CAPITALIZE </s> -0.3010
-2.1584 CAPITALIZE ALPHA -0.2993
-1.5563 CAPITALIZE CHARLIE -0.2583
-1.5563 CAPITALIZE DELTA -0.2056
-1.8573 CAPITALIZE ESCAPE -0.2591
-0.9542 CAPITALIZE FOXTROT -0.1805
-2.1584 CAPITALIZE HOTEL -0.2745
-1.8573 CAPITALIZE INDIA -0.1863
-1.1170 CAPITALIZE LIMA -0.1361
-1.2553 CAPITALIZE MIKE -0.1828
-2.1584 CAPITALIZE NOVEMBER -0.2933
-1.4594 CAPITALIZE OSCAR -0.2877
-2.1584 CAPITALIZE SAVE -0.2698
-2.1584 CAPITALIZE SEEK -0.2730
-1.1170 CAPITALIZE SIERRA -0.1948
-1.8573 CAPITALIZE TANGO -0.2884
-1.3010 CARROT APPEND -0.2944
-1.3010 CARROT DELETE -0.2612
-1.3010 CARROT EIGHT -0.2840
-0.5229 CARROT INSERT -0.2491
-1.3010 CARROT PASTE -0.1249
-1.5051 CHARLIE </s> -0.3010
-1.8062 CHARLIE ALPHA -0.2375
-2.2833 CHARLIE COLON -0.1509
-2.2833 CHARLIE COMMA -0.0414
-1.8062 CHARLIE DOT -0.2624
-1.2833 CHARLIE ECHO -0.2264
-1.9823 CHARLIE ENTER -0.2765
-1.8062 CHARLIE ESCAPE -0.2629
-1.3291 CHARLIE HOTEL -0.2420
-1.8062 CHARLIE KILO -0.2486
-1.9823 CHARLIE LIMA -0.2815
-1.9823 CHARLIE MIKE -0.2908
-1.0280 CHARLIE OSCAR -0.2179
-0.8683 CHARLIE ROMEO -0.1819
-2.2833 CHARLIE SHOOP -0.2979
-1.9823 CHARLIE SLASH -0.2486
-2.2833 CHARLIE SPACE -0.2998
-2.2833 CHARLIE TANGO -0.2806
-2.2833 CHARLIE UNIFORM -0.2961
-2.2833 CHARLIE YLRUC -0.2632
-1.4150 COLON </s> -0.3010
-2.1139 COLON DELTA -0.2949
-0.5342 COLON ENTER -0.1599
-1.6368 COLON ESCAPE -0.2455
-2.1139 COLON INDIA -0.2147
-2.1139 COLON MATCH -0.2711
-2.1139 COLON QUEBEC -0.2900
-1.4150 COLON SIERRA -0.2908
-1.2688 COLON SPACE -0.2644
-1.6368 COLON WHISKEY -0.2762
-1.9031 COMMA </s> -0.3010
-1.4260 COMMA ENTER -0.2882
-0.3468 COMMA SPACE -0.1761
-0.8653 COMPLETE </s> -0.3010
-1.3424 COMPLETE COLON -0.1509
-1.0414 COMPLETE ESCAPE -0.2591
-1.3424 COMPLETE NERAP -0.2181
-1.3424 COMPLETE NEXT -0.2788
-0.8653 COMPLETE SPACE -0.2934
-0.3010 COPY ESCAPE -0.2851
-1.0792 CURLY ENTER -0.2982
-1.0792 CURLY LISTEN -0.2840
-1.0792 CURLY ONE -0.2863
-1.0792 CURLY QUOTE -0.2976
-1.0792 CURLY TANGO -0.2935
-1.0792 CURLY TICK -0.2942
-0.7782 CUT PAGE -0.2881
-0.7782 CUT UNDO -0.2762
-0.7782 CUT UP -0.2230
-1.2553 DEFINE </s> -0.3010
-1.2553 DEFINE KILO -0.2704
-1.2553 DEFINE LISTEN -0.2663
-1.2553 DEFINE SCORE -0.2704
-0.6532 DEFINE SPACE -0.2850
-1.2553 DEFINE VICTOR -0.2490
-1.7559 DELETE </s> -0.3010
-1.4548 DELETE BACK -0.2121
-2.0569 DELETE BIGBACK -0.2478
-1.7559 DELETE CARROT -0.1461
-0.9430 DELETE DELETE -0.1836
-1.3579 DELETE DOLLA -0.1656
-1.5798 DELETE DOWN -0.2252
-2.0569 DELETE END -0.2808
-2.0569 DELETE FILEEND -0.2218
-1.7559 DELETE INSERT -0.2855
-2.0569 DELETE MATCH -0.2553
-1.3579 DELETE NEWLINE -0.2553
-1.5798 DELETE SAVE -0.1249
-2.0569 DELETE UNDO -0.2499
-2.0569 DELETE WHISKEY -0.2970
-1.0569 DELETE WORD -0.1990
-1.7559 DELETE ZERO -0.2846
-1.4533 DELTA </s> -0.3010
-2.1523 DELTA ALPHA -0.2833
-2.1523 DELTA ASSIGN -0.2915
-1.1523 DELTA CAPITALIZE -0.2255
-2.1523 DELTA COLON -0.2977
-2.1523 DELTA DELETE -0.2612
-2.1523 DELTA DELTA -0.2980
-1.8513 DELTA DOT -0.2724
-0.7906 DELTA ECHO -0.2239
-1.8513 DELTA ENTER -0.2954
-2.1523 DELTA INDIA -0.2926
-1.8513 DELTA LIMA -0.1886
-1.5502 DELTA OSCAR -0.2258
-2.1523 DELTA PAREN -0.2769
-2.1523 DELTA QUOTE -0.2837
-2.1523 DELTA ROMEO -0.2812
-1.8513 DELTA SHOOP -0.1607
-1.6752 DELTA SIERRA -0.2586
-2.1523 DELTA SLASH -0.2808
-1.3741 DELTA SPACE -0.2603
-1.8513 DELTA UNIFORM -0.2808
-0.7482 DOLLA APPEND -0.1805
-1.1461 DOLLA BACK -0.2218
-1.4472 DOLLA BIGBACK -0.2083
-1.7482 DOLLA COLON -0.2840
-1.2711 DOLLA DELETE -0.2775
-1.7482 DOLLA DOLLA -0.2156
-1.0492 DOLLA INSERT -0.2627
-1.7482 DOLLA KEES -0.2730
-1.7482 DOLLA LEFT -0.1597
-1.6721 DOT ALPHA -0.2572
-1.6721 DOT CHARLIE -0.2558
-1.9731 DOT COMPLETE -0.2374
-1.9731 DOT FOUR -0.2852
-1.3711 DOT FOXTROT -0.2739
-1.9731 DOT GOLF -0.2239
-1.9731 DOT JULIET -0.2717
-1.6721 DOT KILO -0.2808
-1.9731 DOT MIKE -0.2269
-1.9731 DOT NOVEMBER -0.2933
-1.6721 DOT QUOTE -0.2583
-1.9731 DOT RIGHT -0.2798
-1.4960 DOT ROMEO -0.2545
-1.6721 DOT SHOOP -0.1592
-1.4960 DOT SIERRA -0.2511
-1.6721 DOT SOUTH -0.1568
-1.3711 DOT SPACE -0.2902
-1.1950 DOT TANGO -0.2935
-1.9731 DOT VICTOR -0.2490
-1.2742 DOT WHISKEY -0.2676
-1.6721 DOT XRAY -0.2460
-2.1931 DOWN </s> -0.3010
-2.1931 DOWN APPEND -0.2808
-2.1931 DOWN BIGWORD -0.2808
-1.8921 DOWN CAPITALIZE -0.2825
-1.7160 DOWN CARROT -0.1139
-1.4942 DOWN COLON -0.2805
-2.1931 DOWN CUT -0.2218
-1.4942 DOWN DELETE -0.2484
-1.7160 DOWN DOLLA -0.1549
-0.9144 DOWN DOWN -0.1207
-2.1931 DOWN EIGHT -0.2663
-2.1931 DOWN FILEEND -0.2906
-2.1931 DOWN FORWARD -0.2788
-1.8921 DOWN GREATER 0.0000
-2.1931 DOWN INSERT -0.2918
-1.2389 DOWN NEWLINE -0.1761
-1.7160 DOWN RIGHT -0.2834
-2.1931 DOWN SEEK -0.2872
-1.8921 DOWN SHIFT -0.1761
-2.1931 DOWN SLASH -0.2808
-2.1931 DOWN TAB -0.2762
-1.8921 DOWN TFIHS -0.1761
-2.1931 DOWN THREE -0.2798
-2.1931 DOWN TWO -0.2825
-1.5911 DOWN UP -0.1781
-1.8921 DOWN VISUALLINE -0.2041
-1.5911 DOWN WORD -0.2586
-0.9031 EAST NETSIL -0.2808
-0.9031 EAST NEXT -0.2788
-0.9031 EAST NORTH -0.2218
-0.9031 EAST SPELL 0.0000
-1.4750 ECHO </s> -0.3010
-1.6669 ECHO ALPHA -0.2294
-1.9222 ECHO ASSIGN -0.2511
-2.6212 ECHO BRACKET -0.2583
-2.6212 ECHO BRAVO -0.2771
-1.7761 ECHO CAPITALIZE -0.2290
-2.1441 ECHO CHARLIE -0.2872
-2.6212 ECHO COLON -0.1509
-2.6212 ECHO COMMA -0.0414
-2.1441 ECHO DELTA -0.2758
-2.3201 ECHO ECHO -0.2841
-2.3201 ECHO ENTER -0.2982
-2.0191 ECHO ESCAPE -0.1998
-1.9222 ECHO FOXTROT -0.2179
-2.1441 ECHO INDIA -0.2766
-2.6212 ECHO KILO -0.2808
-1.8430 ECHO LIMA -0.2375
-2.1441 ECHO MIKE -0.2696
-1.6669 ECHO NERAP -0.0476
-1.0897 ECHO NOVEMBER -0.1795
-2.0191 ECHO PAPA -0.2697
-1.5420 ECHO PAREN -0.1436
-2.0191 ECHO QUEBEC -0.2175
-2.3201 ECHO QUOTE -0.2766
-1.7761 ECHO ROMEO -0.2046
-2.6212 ECHO SHOOP -0.2990
-1.3659 ECHO SIERRA -0.1990
-1.5420 ECHO SPACE -0.2455
-1.5072 ECHO TANGO -0.2035
-2.0191 ECHO VICTOR -0.2645
-1.3907 ECHO XRAY -0.1597
-2.6212 ECHO ZULU -0.2932
-1.3010 EGAP DOWN -0.2926
-1.3010 EGAP EGAP -0.2553
-1.0000 EGAP FIVE -0.2518
-0.8239 EGAP FORWARD -0.2672
-1.3010 EGAP SAVE -0.2762
-1.0000 EGAP UP -0.2122
-1.4150 EIGHT ENTER -0.2882
-0.6368 EIGHT GOTO -0.1691
-1.4150 EIGHT NEWLINE -0.2900
-1.4150 EIGHT NINE -0.2374
-1.1139 EIGHT SEEK -0.2583
-1.4150 EIGHT SHOOP -0.3000
-1.4150 EIGHT SPACE -0.3004
-0.9031 ELIF ENTER -0.2996
-0.4260 ELIF PAREN -0.2861
-0.8451 ELSE COLON -0.1266
-1.1461 ELSE ESCAPE -0.2686
-1.1461 ELSE JULIET -0.2615
-0.6690 ELSE SPACE -0.2883
-1.0414 END APPEND -0.2808
-1.3424 END BIGWORD -0.2808
-1.0414 END CAPITALIZE -0.2950
-1.3424 END COPY 0.0000
-1.3424 END HUG -0.2218
-1.3424 END INSERT -0.2980
-1.3424 END NOVEMBER -0.2761
-1.3424 END PASTE -0.1249
-1.3424 END SAVE -0.1249
-1.3153 ENTER </s> -0.3010
-2.1903 ENTER ALPHA -0.2833
-2.1903 ENTER BRAVO -0.2604
-1.7132 ENTER CHARLIE -0.2352
-2.4914 ENTER COLON -0.2909
-2.0142 ENTER DEFINE -0.1249
-2.4914 ENTER DELETE -0.2484
-2.4914 ENTER DELTA -0.2980
-2.1903 ENTER DOWN -0.2350
-2.4914 ENTER ELIF -0.2430
-2.4914 ENTER ELSE -0.2688
-1.6463 ENTER ENTER -0.2630
-1.7132 ENTER ESCAPE -0.1703
-1.8893 ENTER FILEEND -0.2576
-2.4914 ENTER FORWARD -0.2900
-1.7924 ENTER FOXTROT -0.2596
-2.4914 ENTER GOLF -0.2239
-2.1903 ENTER HOTEL -0.2377
-1.8893 ENTER IF -0.1427
-2.4914 ENTER INSERT -0.2886
-1.8893 ENTER ITERATE -0.1761
-1.7924 ENTER JULIET -0.2293
-2.1903 ENTER KEES -0.2109
-1.8893 ENTER LIMA -0.2041
-2.4914 ENTER LISTEN -0.2663
-2.4914 ENTER MIKE -0.2269
-2.4914 ENTER NEWLINE -0.2900
-2.1903 ENTER NEXT -0.2553
-2.1903 ENTER NINE -0.2596
-2.4914 ENTER NORTH -0.2218
-1.8893 ENTER ONE -0.2389
-2.4914 ENTER PAGE -0.2609
-2.4914 ENTER PAPA -0.2785
-2.0142 ENTER PAREN -0.2311
-2.1903 ENTER QUEBEC -0.2788
-1.5883 ENTER QUIT 0.0000
-2.4914 ENTER QUOTE -0.2583
-2.4914 ENTER REPLACE -0.2863
-2.1903 ENTER RETURN -0.0969
-2.1903 ENTER RIGHT -0.1874
-2.4914 ENTER SCORE -0.2704
-2.4914 ENTER SEVEN -0.2840
-1.5371 ENTER SHOOP -0.1218
-1.7924 ENTER SIERRA -0.1817
-2.4914 ENTER SIX -0.2808
-2.1903 ENTER SNORE -0.0300
-2.0142 ENTER SOUTH -0.1434
-2.1903 ENTER TAB -0.2499
-2.4914 ENTER THREE -0.2906
-2.0142 ENTER TWO -0.2430
-2.4914 ENTER UP -0.2797
-2.1903 ENTER VICTOR -0.2568
-2.4914 ENTER VISUALBLOCK -0.2430
-2.1903 ENTER WHILE -0.1963
-2.4914 ENTER WHISKEY -0.2544
-2.1903 ENTER XRAY -0.2421
-2.1903 ENTER YANKEE -0.2218
-2.1903 ENTER ZULU -0.2771
-1.7782 EQUALS CAPITALIZE -0.2980
-1.4771 EQUALS EQUALS -0.1357
-1.7782 EQUALS ONE -0.2711
-1.7782 EQUALS PAGE -0.2881
-1.7782 EQUALS RIGHT -0.2976
-1.7782 EQUALS SHOOP -0.1621
-1.7782 EQUALS SIERRA -0.2511
-0.4994 EQUALS SPACE -0.2347
-1.7782 EQUALS THREE -0.2798
-1.7782 EQUALS TICK -0.2872
-1.7782 EQUALS TWO -0.2825
-1.0969 ESCAPE </s> -0.3010
-1.9208 ESCAPE BACK -0.1597
-2.0969 ESCAPE BACKWARD -0.2430
-2.3979 ESCAPE BIGBACK -0.2478
-2.0969 ESCAPE CAPITALIZE -0.2857
-2.0969 ESCAPE CARROT -0.1139
-2.0969 ESCAPE COLON -0.2909
-2.3979 ESCAPE DELETE -0.2484
-1.9208 ESCAPE DOLLA -0.2061
-1.3979 ESCAPE DOWN -0.1761
-2.3979 ESCAPE END -0.2596
-1.9208 ESCAPE FILEBEGIN -0.1761
-1.9208 ESCAPE FILEEND -0.2093
-1.9208 ESCAPE FIVE -0.1963
-2.3979 ESCAPE FOUR -0.2156
-2.3979 ESCAPE KEES -0.2730
-2.3979 ESCAPE LEFT -0.2913
-2.3979 ESCAPE MATCH -0.2553
-2.0969 ESCAPE MIDDLE -0.1761
-2.0969 ESCAPE NEWLINE -0.2672
-2.3979 ESCAPE NEXT -0.2553
-1.7959 ESCAPE ONE -0.2389
-2.0969 ESCAPE PAGE -0.2747
-2.3979 ESCAPE QUIT -0.1919
-1.9208 ESCAPE RIGHT -0.2870
-1.0555 ESCAPE SAVE -0.0119
-2.0969 ESCAPE SEVEN -0.2478
-2.3979 ESCAPE SLASH -0.2910
-2.3979 ESCAPE SNORE -0.0300
-2.3979 ESCAPE THREE -0.2798
-1.9208 ESCAPE UNDO -0.1597
-1.1427 ESCAPE UP -0.1189
-2.3979 ESCAPE WHISKEY -0.2970
-2.3979 ESCAPE XRAY -0.2870
-1.0000 FALSE COMMA -0.0414
-0.6990 FALSE ENTER -0.2925
-0.6990 FALSE ESCAPE -0.2212
-1.0792 FILEBEGIN </s> -0.3010
-1.0792 FILEBEGIN INSERT -0.2949
-0.7782 FILEBEGIN SAVE -0.2632
-1.0792 FILEBEGIN SNORE -0.0300
-1.0792 FILEBEGIN WORD -0.2299
-1.6232 FILEEND </s> -0.3010
-1.6232 FILEEND APPEND -0.2944
-1.6232 FILEEND CUT -0.2218
-1.6232 FILEEND DOLLA -0.2604
-1.3222 FILEEND EGAP -0.2304
-1.6232 FILEEND FORWARD -0.2900
-1.6232 FILEEND HIGH -0.1761
-1.6232 FILEEND INSERT -0.2980
-0.7782 FILEEND NEWLINE -0.2041
-1.6232 FILEEND QUIT -0.1597
-1.1461 FILEEND SPACE -0.2972
-1.6232 FILEEND UP -0.2980
-1.4472 FIVE BACK -0.2929
-1.1461 FIVE DOWN -0.2693
-1.1461 FIVE GOTO -0.2093
-1.4472 FIVE NINE -0.2808
-1.4472 FIVE RIGHT -0.1919
-1.4472 FIVE SEEK -0.2872
-1.4472 FIVE SPACE -0.2991
-0.9700 FIVE UP -0.2797
-1.4472 FIVE YLRUC -0.1249
-1.4472 FIVE ZULU -0.2932
-1.3010 FORWARD BACKWARD -0.2109
-1.6021 FORWARD DOWN -0.2982
-0.9031 FORWARD FORWARD -0.1761
-1.6021 FORWARD MIDDLE -0.2430
-1.6021 FORWARD NINE -0.2808
-1.6021 FORWARD ONE -0.2632
-1.6021 FORWARD PAGE -0.2319
-1.6021 FORWARD SEVEN -0.2663
-1.6021 FORWARD SIX -0.2374
-1.6021 FORWARD SLASH -0.2808
-1.6021 FORWARD THREE -0.2798
-1.6021 FORWARD TWO -0.2825
-1.3010 FORWARD UP -0.2230
-1.6021 FORWARD ZULU -0.1863
-1.4472 FOUR </s> -0.3010
-1.4472 FOUR COMMA -0.0414
-0.7482 FOUR DOWN -0.2752
-1.4472 FOUR EIGHT -0.2840
-1.4472 FOUR FIVE -0.2852
-1.4472 FOUR SEVEN -0.2840
-1.4472 FOUR SHOOP -0.3000
-1.4472 FOUR UP -0.2890
-1.4472 FOUR WORD -0.2696
-1.4472 FOUR ZERO -0.2762
-1.8195 FOXTROT </s> -0.3010
-2.1206 FOXTROT ALPHA -0.2940
-1.4216 FOXTROT COLON -0.1114
-2.1206 FOXTROT COMMA -0.2844
-1.2755 FOXTROT DOT -0.2470
-2.1206 FOXTROT ECHO -0.3000
-1.8195 FOXTROT ESCAPE -0.2553
-1.8195 FOXTROT FOXTROT -0.2774
-0.7984 FOXTROT INDIA -0.1721
-1.6435 FOXTROT LIMA -0.2629
-1.8195 FOXTROT NERAP -0.2650
-2.1206 FOXTROT OR -0.2730
-1.8195 FOXTROT OSCAR -0.2927
-2.1206 FOXTROT REPLACE -0.2863
-1.1206 FOXTROT ROMEO -0.2718
-2.1206 FOXTROT SPACE -0.2896
-1.6435 FOXTROT UNIFORM -0.2078
-2.1206 FOXTROT YANKEE -0.2888
-1.9345 GOLF </s> -0.3010
-1.4574 GOLF ASSIGN -0.2768
-1.4574 GOLF CAPITALIZE -0.2499
-1.9345 GOLF COLON -0.1509
-1.9345 GOLF COMMA -0.0414
-0.7884 GOLF ECHO -0.2151
-1.9345 GOLF ENTER -0.2795
-1.9345 GOLF ESCAPE -0.2958
-1.4574 GOLF HOTEL -0.2420
-1.9345 GOLF INSERT -0.2823
-1.4574 GOLF NERAP -0.1823
-1.9345 GOLF NOVEMBER -0.2959
-1.9345 GOLF OSCAR -0.2994
-1.9345 GOLF QUOTE -0.2837
-1.9345 GOLF SCORE -0.2910
-1.9345 GOLF SHOOP -0.1621
-1.9345 GOLF SLASH -0.2704
-1.3324 GOLF SPACE -0.2712
-1.9345 GOLF TANGO -0.2687
-1.6232 GOTO CARROT -0.2788
-1.3222 GOTO DELETE -0.2484
-1.6232 GOTO EIGHT -0.2663
-1.6232 GOTO HUG -0.2218
-1.6232 GOTO QUIT -0.1919
-1.1461 GOTO SEEK -0.2583
-0.7782 GOTO SPACE -0.2953
-1.6232 GOTO THREE -0.2906
-1.6232 GOTO TWO -0.2825
-1.6232 GOTO VISUALBLOCK -0.1761
-1.6232 GOTO WEST -0.2430
-1.6232 GOTO WORD -0.2299
-0.3010 GREATER DOWN -0.2752
-0.6021 HIGH DOWN -0.2350
-0.9031 HIGH EGAP -0.2553
-0.9031 HIGH VISUALLINE -0.2788
-1.4698 HOTEL </s> -0.3010
-1.2268 HOTEL ALPHA -0.2170
-2.0719 HOTEL AND -0.2730
-1.5948 HOTEL ASSIGN -0.2667
-1.5948 HOTEL DOT -0.2724
-1.1688 HOTEL ECHO -0.2585
-2.0719 HOTEL EGAP -0.2788
-2.0719 HOTEL EQUALS -0.2937
-2.0719 HOTEL ESCAPE -0.2648
-2.0719 HOTEL INDIA -0.2147
-2.0719 HOTEL NERAP -0.2181
-1.1176 HOTEL OSCAR -0.2596
-2.0719 HOTEL QUOTE -0.2907
-2.0719 HOTEL SHOOP -0.2958
-2.0719 HOTEL SOUTH -0.2403
-0.9579 HOTEL SPACE -0.2376
-2.0719 HOTEL TANGO -0.2998
-2.0719 HOTEL TICK -0.2942
-2.0719 HOTEL UNIFORM -0.2756
-0.9031 HSALS </s> -0.3010
-0.6021 HSALS NOVEMBER -0.2761
-0.9031 HSALS RIGHT -0.2499
-0.7782 HUG EAST -0.2430
-0.7782 HUG KEES -0.2430
-0.7782 HUG SHOOP -0.3000
-1.5563 IF </s> -0.3010
-1.2553 IF BANG -0.2041
-1.5563 IF ENTER -0.2996
-1.5563 IF ESCAPE -0.2993
-1.5563 IF LISTEN -0.2663
-1.0792 IF PAREN -0.2861
-1.5563 IF SHOOP -0.1621
-0.7112 IF SPACE -0.2505
-1.5563 IF TANGO -0.2687
-0.3010 INDA LIMA -0.2905
-1.7184 INDIA </s> -0.3010
-2.5635 INDIA BRAVO -0.2852
-2.2625 INDIA CHARLIE -0.2706
-2.0864 INDIA ECHO -0.2653
-2.5635 INDIA FOXTROT -0.2977
-2.0864 INDIA GOLF -0.2750
-2.5635 INDIA KILO -0.2808
-1.3330 INDIA LIMA -0.1841
-2.5635 INDIA MIC 0.0000
-1.6604 INDIA MIKE -0.1624
-0.7439 INDIA NOVEMBER -0.1020
-1.8645 INDIA OSCAR -0.2721
-1.1485 INDIA PAPA -0.2027
-2.5635 INDIA QUOTE -0.2976
-2.0864 INDIA ROMEO -0.2812
-2.5635 INDIA SHOOP -0.2990
-1.7853 INDIA SIERRA -0.2178
-2.2625 INDIA SPACE -0.2824
-1.2847 INDIA TANGO -0.1988
-2.0864 INDIA TEKCARB -0.2041
-2.5635 INDIA VICTOR -0.2490
-2.0864 INDIA XRAY -0.2050
-2.0864 INDIA ZULU -0.2688
-1.6752 INSERT </s> -0.3010
-2.1523 INSERT BRACKET -0.2872
-2.1523 INSERT BRAVO -0.2771
-2.1523 INSERT CHARLIE -0.2802
-1.5502 INSERT COMMA -0.0414
-2.1523 INSERT CURLY -0.2632
-2.1523 INSERT DEFINE -0.2762
-2.1523 INSERT DELTA -0.2980
-2.1523 INSERT ENTER -0.2968
-1.8513 INSERT FOXTROT -0.2179
-2.1523 INSERT HOTEL -0.2666
-1.8513 INSERT IF -0.2632
-1.5502 INSERT INDIA -0.2014
-1.8513 INSERT ITERATE -0.2553
-1.3741 INSERT JULIET -0.2181
-2.1523 INSERT KILO -0.2704
-1.8513 INSERT LIMA -0.2704
-1.6752 INSERT LISTEN -0.2478
-2.1523 INSERT MIKE -0.2882
-2.1523 INSERT MINUS -0.1139
-1.5502 INSERT NOVEMBER -0.2183
-2.1523 INSERT ONE -0.2937
-1.8513 INSERT PAPA -0.2785
-1.8513 INSERT PAREN -0.2891
-2.1523 INSERT PREVIOUS -0.2430
-2.1523 INSERT QUESTION -0.1249
-1.6752 INSERT QUOTE -0.2620
-1.5502 INSERT SHOOP -0.2937
-2.1523 INSERT SIERRA -0.2732
-1.8513 INSERT SPACE -0.2876
-1.8513 INSERT TICK -0.2872
-2.1523 INSERT TILDE -0.2688
-2.1523 INSERT UNIFORM -0.2961
-1.8513 INSERT VICTOR -0.2329
-2.1523 INSERT WHILE -0.1963
-1.8513 INSERT WHISKEY -0.2499
-2.1523 INSERT YANKEE -0.2888
-2.1523 INSERT ZULU -0.2932
-1.3010 ITERATE HOTEL -0.2973
-1.3010 ITERATE QUEBEC -0.2553
-0.6990 ITERATE SPACE -0.2630
-1.0000 ITERATE TANGO -0.2845
-1.3010 ITERATE XRAY -0.2460
-1.3010 ITERATE ZULU -0.2852
-1.3617 JULIET ALPHA -0.2648
-1.0607 JULIET ASSIGN -0.2615
-1.3617 JULIET COMMA -0.0107
-1.6628 JULIET DOT -0.2773
-1.3617 JULIET ECHO -0.2765
-1.3617 JULIET ESCAPE -0.2294
-1.6628 JULIET INDIA -0.2804
-1.6628 JULIET MINUS -0.2788
-1.1856 JULIET OSCAR -0.2944
-1.3617 JULIET SPACE -0.2883
-1.3617 JULIET UNIFORM -0.1954
-1.6628 JULIET ZERO -0.2929
-1.2041 KEES DELTA -0.2980
-1.2041 KEES EQUALS -0.2937
-1.2041 KEES FOXTROT -0.2977
-1.2041 KEES GOLF -0.2960
-0.9031 KEES HSALS -0.2430
-1.2041 KEES SIERRA -0.2993
-1.2041 KEES XRAY -0.2870
-1.6435 KILO </s> -0.3010
-1.6435 KILO ALPHA -0.2975
-1.6435 KILO ASSIGN -0.2963
-1.6435 KILO DELETE -0.2612
-1.3424 KILO DOT -0.2724
-1.6435 KILO ESCAPE -0.2648
-1.1663 KILO INDIA -0.1800
-1.6435 KILO NERAP -0.2293
-1.3424 KILO PAREN -0.2738
-1.6435 KILO QUOTE -0.2907
-1.3424 KILO SIERRA -0.2786
-1.6435 KILO SOUTH -0.2403
-1.1663 KILO SPACE -0.2889
-1.6435 KILO TICK -0.2872
-1.6435 KILO TIMES -0.2218
-1.6532 LEFT </s> -0.3010
-1.9542 LEFT BACK -0.2929
-1.6532 LEFT DELETE -0.2694
-1.4771 LEFT INSERT -0.2855
-0.5563 LEFT LEFT -0.0458
-1.9542 LEFT MATCH -0.2553
-1.9542 LEFT PASTE -0.2632
-1.6532 LEFT REPLACE -0.2389
-1.6532 LEFT RIGHT -0.2688
-1.9542 LEFT SPACE -0.2972
-1.6532 LEFT VISUALMODE -0.2285
-1.6532 LEFT XRAY -0.2798
-1.9542 LEFT ZERO -0.2929
-0.9031 LESSER </s> -0.3010
-0.4260 LESSER SPACE -0.2752
-1.6198 LIMA </s> -0.3010
-1.6990 LIMA ALPHA -0.2591
-1.6990 LIMA ASSIGN -0.2511
-2.3979 LIMA COMMA -0.0414
-2.3979 LIMA DELTA -0.2918
-0.9508 LIMA ECHO -0.1698
-2.3979 LIMA ENTER -0.2795
-2.3979 LIMA ESCAPE -0.2940
-2.3979 LIMA FOXTROT -0.2774
-0.9355 LIMA INDIA -0.1863
-1.6198 LIMA LIMA -0.2815
-2.3979 LIMA MIKE -0.2269
-1.9208 LIMA NERAP -0.2025
-1.1938 LIMA OSCAR -0.2412
-2.0969 LIMA PAREN -0.2513
-1.6990 LIMA SCORE -0.2486
-1.6198 LIMA SHOOP -0.1491
-2.3979 LIMA SIERRA -0.2977
-2.3979 LIMA SOUTH -0.1568
-1.9208 LIMA SPACE -0.2844
-2.3979 LIMA TANGO -0.2806
-2.3979 LIMA TEKCARB -0.2553
-2.3979 LIMA UNIFORM -0.2910
-1.4150 LISTEN </s> -0.3010
-1.4150 LISTEN CARROT -0.2788
-1.4150 LISTEN GOTO -0.2906
-1.1139 LISTEN NETSIL -0.2374
-1.4150 LISTEN QUESTION -0.2632
-1.4150 LISTEN RETURN -0.2430
-1.1139 LISTEN SNORE 0.0000
-1.4150 LISTEN TAB -0.2762
-1.4150 LISTEN TANGO -0.2998
-1.4150 LISTEN TICK -0.2942
-1.4150 LISTEN WEST -0.2430
-0.3010 LLEPS INSERT -0.2949
-0.6021 LOW DOLLA -0.2771
-0.6021 LOW PAGE -0.2467
-1.4771 MATCH </s> -0.3010
-1.0000 MATCH APPEND -0.2739
-1.4771 MATCH DELETE -0.2972
-1.1761 MATCH DELTA -0.2949
-1.1761 MATCH INSERT -0.2886
-1.4771 MATCH LEFT -0.1597
-1.4771 MATCH PREVIOUS -0.2632
-1.4771 MATCH SIERRA -0.2623
-1.1761 MATCH SPACE -0.2850
-1.4771 MATCH XRAY -0.2941
-0.3010 MIC PAPA -0.2842
-0.9031 MIDDLE </s> -0.3010
-0.9031 MIDDLE DOWN -0.2982
-0.9031 MIDDLE FIVE -0.2852
-0.9031 MIDDLE VISUALMODE -0.2285
-1.6335 MIKE </s> -0.3010
-0.8042 MIKE ALPHA -0.1841
-2.2355 MIKE AND -0.2430
-1.6335 MIKE CAPITALIZE -0.2109
-2.2355 MIKE COLON -0.1509
-2.2355 MIKE DELTA -0.2855
-1.9345 MIKE DOT -0.2869
-1.2813 MIKE ECHO -0.2457
-1.9345 MIKE EQUALS -0.2863
-1.7584 MIKE INDIA -0.2074
-2.2355 MIKE INSERT -0.2980
-1.3904 MIKE MIKE -0.2116
-1.9345 MIKE NERAP -0.2293
-1.6335 MIKE OSCAR -0.2791
-1.5366 MIKE PAPA -0.2842
-1.9345 MIKE SCORE -0.2704
-2.2355 MIKE SIERRA -0.2993
-1.3324 MIKE SPACE -0.2354
-2.2355 MIKE WHISKEY -0.2929
-2.2355 MIKE YANKEE -0.2888
-1.3010 MINUS MIKE -0.2960
-0.4559 MINUS SPACE -0.2831
-1.3010 MINUS WHISKEY -0.2929
-1.3010 MINUS YANKEE -0.2218
-1.8388 NERAP </s> -0.3010
-2.1399 NERAP APPEND -0.2808
-0.7597 NERAP COLON -0.1266
-2.1399 NERAP COMMA -0.0414
-1.1856 NERAP ENTER -0.2394
-0.8177 NERAP ESCAPE -0.1411
-2.1399 NERAP HOTEL -0.2973
-1.8388 NERAP NERAP -0.2181
-2.1399 NERAP SHOOP -0.2990
-1.2948 NERAP SPACE -0.2811
-1.0414 NETSIL </s> -0.3010
-1.3424 NETSIL COLON -0.1509
-1.3424 NETSIL COMMA -0.0414
-1.3424 NETSIL CURLY -0.2632
-1.3424 NETSIL ESCAPE -0.2610
-1.3424 NETSIL PAREN -0.2921
-1.3424 NETSIL SAVE -0.2762
-1.0414 NETSIL SPACE -0.2922
-1.3424 NETSIL TICK -0.2942
-1.9031 NEWLINE </s> -0.3010
-1.9031 NEWLINE BRAVO -0.2932
-1.9031 NEWLINE CHARLIE -0.2583
-1.9031 NEWLINE DEFINE -0.1919
-1.6021 NEWLINE ENTER -0.2868
-1.4260 NEWLINE ESCAPE -0.2610
-1.6021 NEWLINE FOXTROT -0.2774
-1.9031 NEWLINE GOLF -0.2960
-1.9031 NEWLINE IF -0.2632
-1.4260 NEWLINE INDIA -0.2029
-1.9031 NEWLINE ITERATE -0.2041
-1.9031 NEWLINE JULIET -0.2915
-1.6021 NEWLINE LIMA -0.2923
-1.9031 NEWLINE MIKE -0.2269
-1.9031 NEWLINE NOVEMBER -0.2637
-1.6021 NEWLINE PAPA -0.2697
-1.1249 NEWLINE SHOOP -0.1446
-1.9031 NEWLINE SIERRA -0.2511
-1.6021 NEWLINE TAB -0.2218
-1.9031 NEWLINE VICTOR -0.2490
-1.9031 NEWLINE WHILE -0.2688
-1.2041 NEWLINE WHISKEY -0.1919
-1.0000 NEXT </s> -0.3010
-1.3010 NEXT AGAIN -0.2632
-1.3010 NEXT APPEND -0.2944
-1.3010 NEXT BACKWARD -0.2730
-1.3010 NEXT END -0.2808
-1.3010 NEXT NEXT -0.2553
-1.3010 NEXT PREVIOUS -0.2825
-1.3010 NEXT REPLACE -0.2553
-1.3010 NEXT VISUALMODE -0.2285
-1.0414 NINE </s> -0.3010
-1.3424 NINE DOWN -0.2897
-1.3424 NINE ENTER -0.2882
-0.8653 NINE GOTO -0.2460
-1.3424 NINE ONE -0.2937
-1.3424 NINE SEEK -0.2872
-1.3424 NINE SEVEN -0.2840
-1.3424 NINE TEKCARB -0.2553
-0.7782 NORTH COMPLETE -0.2374
-0.7782 NORTH TAB -0.2762
-0.7782 NORTH WEST -0.2430
-1.8325 NOVEMBER </s> -0.3010
-2.5315 NOVEMBER AGAIN -0.2632
-1.8325 NOVEMBER ALPHA -0.2905
-2.5315 NOVEMBER BRACKET -0.2872
-1.6864 NOVEMBER CAPITALIZE -0.2182
-1.9294 NOVEMBER CHARLIE -0.2778
-2.5315 NOVEMBER COMMA -0.0414
-1.1335 NOVEMBER DELTA -0.1078
-2.2304 NOVEMBER DOT -0.2773
-1.0843 NOVEMBER ECHO -0.2036
-2.2304 NOVEMBER ENTER -0.2897
-2.5315 NOVEMBER EQUALS -0.2937
-2.2304 NOVEMBER ESCAPE -0.2212
-1.6284 NOVEMBER GOLF -0.1861
-2.0544 NOVEMBER INDIA -0.2665
-2.5315 NOVEMBER KILO -0.2808
-2.5315 NOVEMBER LIMA -0.2494
-2.5315 NOVEMBER NETSIL -0.2596
-1.7533 NOVEMBER OSCAR -0.2218
-2.2304 NOVEMBER PAPA -0.2899
-1.3854 NOVEMBER PAREN -0.1761
-1.9294 NOVEMBER QUOTE -0.2469
-2.5315 NOVEMBER SCORE -0.2910
-1.9294 NOVEMBER SHOOP -0.1578
-2.2304 NOVEMBER SIERRA -0.2678
-1.3554 NOVEMBER SPACE -0.2463
-1.2527 NOVEMBER TANGO -0.1843
-2.2304 NOVEMBER TICK -0.2730
-2.0544 NOVEMBER UNIFORM -0.2704
-1.1761 ONE </s> -0.3010
-1.4771 ONE COMMA -0.0414
-1.7782 ONE DELETE -0.2484
-1.7782 ONE EIGHT -0.2840
-1.7782 ONE ESCAPE -0.2648
-1.7782 ONE FOUR -0.2852
-1.7782 ONE GOTO -0.2218
-1.1761 ONE NERAP -0.2256
-1.7782 ONE NEWLINE -0.2956
-1.7782 ONE NINE -0.2808
-1.7782 ONE SIX -0.2808
-1.0792 ONE THREE -0.2341
-1.3010 ONE TWO -0.2218
-1.1761 ONE ZERO -0.2588
-1.2041 OR </s> -0.3010
-1.2041 OR BRAVO -0.2852
-0.9031 OR CHARLIE -0.2919
-1.2041 OR JULIET -0.2717
-1.2041 OR PAREN -0.2643
-1.2041 OR SPACE -0.2896
-1.2041 OR TANGO -0.2973
-1.5765 OSCAR </s> -0.3010
-2.4216 OSCAR ALPHA -0.2940
-2.4216 OSCAR BRAVO -0.2932
-2.1206 OSCAR CAPITALIZE -0.2499
-2.4216 OSCAR COMPLETE -0.2374
-2.4216 OSCAR DELETE -0.2816
-2.1206 OSCAR DELTA -0.2206
-2.1206 OSCAR DOT -0.2674
-1.9445 OSCAR ENTER -0.2706
-1.9445 OSCAR ESCAPE -0.2591
-2.4216 OSCAR FOXTROT -0.2977
-1.2755 OSCAR GOLF -0.2054
-2.4216 OSCAR IF -0.2071
-2.1206 OSCAR INDIA -0.2118
-1.9445 OSCAR INSERT -0.2823
-2.4216 OSCAR LIMA -0.2993
-1.1429 OSCAR MIKE -0.1029
-1.4674 OSCAR NOVEMBER -0.1912
-2.1206 OSCAR OR -0.2430
-1.8195 OSCAR OSCAR -0.2825
-1.6435 OSCAR PAPA -0.2637
-1.1429 OSCAR ROMEO -0.2545
-2.1206 OSCAR SHOOP -0.2895
-2.1206 OSCAR SIERRA -0.2839
-2.4216 OSCAR SLASH -0.2910
-1.7226 OSCAR SPACE -0.2678
-1.9445 OSCAR TANGO -0.2646
-2.4216 OSCAR TICK -0.2942
-1.3802 OSCAR UNIFORM -0.2139
-2.4216 OSCAR VICTOR -0.2795
-2.1206 OSCAR XRAY -0.2762
-1.5315 PAGE BACKWARD -0.2430
-0.8325 PAGE DOWN -0.2318
-1.0544 PAGE EGAP -0.2304
-1.5315 PAGE FORWARD -0.2430
-0.9294 PAGE PAGE -0.1845
-1.5315 PAGE SEVEN -0.2663
-1.5315 PAGE SIX -0.2808
-1.5315 PAGE SLASH -0.2486
-1.7215 PAPA </s> -0.3010
-1.5966 PAPA ALPHA -0.2704
-2.1987 PAPA ASSIGN -0.2915
-2.1987 PAPA COMMA -0.0414
-1.8976 PAPA DOT -0.2724
-1.2956 PAPA ECHO -0.2492
-1.7215 PAPA ENTER -0.2721
-2.1987 PAPA ESCAPE -0.2975
-1.8976 PAPA FOXTROT -0.2258
-2.1987 PAPA INDIA -0.2147
-1.7215 PAPA LIMA -0.2375
-2.1987 PAPA NERAP -0.2293
-1.5966 PAPA OSCAR -0.2686
-1.8976 PAPA PAREN -0.2800
-1.2956 PAPA ROMEO -0.1957
-2.1987 PAPA SHOOP -0.2969
-1.8976 PAPA SIERRA -0.2960
-2.1987 PAPA SPACE -0.2972
-0.7363 PAPA TANGO -0.1794
-1.8976 PAPA YANKEE -0.2218
-1.5682 PAREN </s> -0.3010
-2.1703 PAREN ALPHA -0.2993
-1.8692 PAREN BRAVO -0.2604
-2.1703 PAREN CHARLIE -0.2965
-2.1703 PAREN DELTA -0.2886
-1.6931 PAREN ESCAPE -0.2572
-1.4713 PAREN FOXTROT -0.2179
-2.1703 PAREN GOLF -0.2803
-2.1703 PAREN HOTEL -0.2973
-1.8692 PAREN INDIA -0.2147
-1.0911 PAREN LIMA -0.1126
-1.8692 PAREN MATCH -0.2711
-1.6931 PAREN MIKE -0.2208
-1.2672 PAREN NERAP -0.0750
-1.8692 PAREN ONE -0.2553
-1.8692 PAREN PAPA -0.2785
-1.8692 PAREN QUEBEC -0.2553
-2.1703 PAREN ROMEO -0.2921
-2.1703 PAREN SEVEN -0.2840
-1.6931 PAREN SHOOP -0.1535
-1.1703 PAREN SIERRA -0.2318
-2.1703 PAREN TANGO -0.2806
-2.1703 PAREN TICK -0.2802
-2.1703 PAREN UNIFORM -0.2961
-1.8692 PAREN XRAY -0.2460
-2.1703 PAREN YANKEE -0.2218
-2.1703 PAREN ZERO -0.2762
-0.4771 PASTE </s> -0.3010
-1.0792 PASTE SAVE -0.2762
-1.0792 PASTE SPACE -0.2972
-1.3802 PLUS </s> -0.3010
-1.0792 PLUS EQUALS -0.1357
-1.3802 PLUS INDIA -0.2975
-1.6812 PLUS KEES -0.2730
-1.3802 PLUS LIMA -0.2940
-1.3802 PLUS NETSIL -0.2596
-1.3802 PLUS SHOOP -0.2990
-0.8361 PLUS SPACE -0.2589
-1.6812 PLUS TICK -0.2942
-1.6812 PLUS VICTOR -0.2795
-1.3802 PREVIOUS </s> -0.3010
-1.3802 PREVIOUS DELETE -0.2612
-1.3802 PREVIOUS INSERT -0.2980
-1.0792 PREVIOUS PREVIOUS -0.2632
-1.3802 PREVIOUS RIGHT -0.2798
-1.3802 PREVIOUS SHOOP -0.1621
-0.9031 PREVIOUS SPACE -0.2864
-1.3802 PREVIOUS VISUALMODE -0.2840
-1.3802 PREVIOUS WORD -0.2908
-1.6021 QUEBEC ASSIGN -0.2768
-1.6021 QUEBEC BANG -0.2553
-1.6021 QUEBEC COMMA -0.2844
-1.6021 QUEBEC DOT -0.2917
-1.3010 QUEBEC ENTER -0.2940
-1.6021 QUEBEC FILEBEGIN -0.2632
-1.6021 QUEBEC NEXT -0.2788
-1.0000 QUEBEC SPACE -0.2765
-0.7570 QUEBEC UNIFORM -0.2596
-1.6021 QUEBEC YLRUC -0.1249
-1.0792 QUESTION PLUS -0.2825
-1.0792 QUESTION QUOTE -0.2802
-0.4771 QUESTION SPACE -0.2902
-0.6532 QUIT </s> -0.3010
-0.5563 QUIT ENTER -0.2568
-1.8062 QUOTE </s> -0.3010
-2.1072 QUOTE ALPHA -0.2869
-2.1072 QUOTE BRAVO -0.2932
-1.8062 QUOTE CAPITALIZE -0.2665
-1.6301 QUOTE COLON -0.2770
-1.4082 QUOTE COMMA -0.0314
-1.8062 QUOTE DOT -0.2773
-2.1072 QUOTE ECHO -0.2969
-1.5051 QUOTE ENTER -0.2615
-1.3291 QUOTE ESCAPE -0.1703
-2.1072 QUOTE HOTEL -0.2973
-1.8062 QUOTE HSALS -0.1761
-2.1072 QUOTE KILO -0.2910
-2.1072 QUOTE LISTEN -0.2840
-1.8062 QUOTE MATCH -0.2553
-1.0280 QUOTE QUOTE -0.1669
-2.1072 QUOTE SHIFT -0.2218
-2.1072 QUOTE SHOOP -0.3000
-1.5051 QUOTE SIERRA -0.2454
-1.4082 QUOTE SPACE -0.2857
-2.1072 QUOTE TANGO -0.2687
-1.8062 QUOTE TEKCARB -0.1856
-1.6301 QUOTE TILDE -0.1963
-2.1072 QUOTE YLRUC -0.1249
-0.3010 REDO ESCAPE -0.2975
-1.4771 REPLACE APPEND -0.2944
-1.4771 REPLACE BRACKET -0.2872
-1.4771 REPLACE CHARLIE -0.2872
-1.4771 REPLACE HOTEL -0.2973
-1.4771 REPLACE HSALS -0.2430
-1.4771 REPLACE NERAP -0.2979
-1.4771 REPLACE NOVEMBER -0.2920
-1.4771 REPLACE QUEBEC -0.2900
-1.4771 REPLACE SPACE -0.2991
-1.4771 REPLACE TEKCARB -0.2863
-1.4771 REPLACE UNIFORM -0.2961
-1.0000 REPLACE WHISKEY -0.2888
-1.4771 REPLACE YANKEE -0.2762
-0.9031 RETURN BRAVO -0.2932
-0.9031 RETURN NETSIL -0.2808
-0.6021 RETURN SPACE -0.2876
-1.7993 RIGHT </s> -0.3010
-1.6232 RIGHT APPEND -0.2668
-1.3222 RIGHT DELETE -0.2354
-2.1004 RIGHT DOWN -0.2897
-2.1004 RIGHT END -0.2808
-1.1973 RIGHT INSERT -0.2206
-1.7993 RIGHT LEFT -0.1461
-2.1004 RIGHT MATCH -0.2863
-2.1004 RIGHT NEWLINE -0.2956
-2.1004 RIGHT ONE -0.2632
-1.3222 RIGHT REPLACE -0.1663
-0.6532 RIGHT RIGHT -0.0699
-2.1004 RIGHT SEEK -0.2872
-2.1004 RIGHT WORD -0.2960
-2.1004 RIGHT XRAY -0.2941
-1.6128 ROMEO </s> -0.3010
-1.3495 ROMEO ALPHA -0.2212
-2.0899 ROMEO CAPITALIZE -0.2825
-2.3909 ROMEO CHARLIE -0.2988
-1.6128 ROMEO DELTA -0.2457
-1.2148 ROMEO ECHO -0.2631
-2.3909 ROMEO ENTER -0.2968
-1.9138 ROMEO GOLF -0.2239
-0.8112 ROMEO INDIA -0.1178
-2.3909 ROMEO JULIET -0.2817
-1.9138 ROMEO MIKE -0.2178
-1.3909 ROMEO OSCAR -0.2218
-2.0899 ROMEO PAREN -0.2546
-2.3909 ROMEO PLUS -0.2825
-2.0899 ROMEO ROMEO -0.2564
-2.3909 ROMEO SHOOP -0.1621
-2.3909 ROMEO SIERRA -0.2960
-2.3909 ROMEO SLASH -0.2910
-1.6920 ROMEO SPACE -0.2752
-1.2770 ROMEO TANGO -0.1744
-1.2553 SAVE </s> -0.3010
-0.4771 SAVE ENTER -0.2296
-1.1584 SAVE QUIT -0.1919
-1.8573 SAVE SLASH -0.2808
-1.5563 SAVE SNORE -0.0300
-1.6435 SCORE BRAVO -0.2932
-1.3424 SCORE CHARLIE -0.2872
-1.6435 SCORE DELTA -0.2886
-1.6435 SCORE FOXTROT -0.2977
-1.6435 SCORE HOTEL -0.2745
-1.3424 SCORE INDIA -0.2103
-0.9445 SCORE LIMA -0.2475
-1.6435 SCORE NOVEMBER -0.2933
-1.6435 SCORE PAREN -0.2769
-1.6435 SCORE QUEBEC -0.2175
-1.1663 SCORE SCORE -0.2596
-1.6435 SCORE SHOOP -0.1621
-1.6435 SCORE YANKEE -0.2888
-1.6435 SCORE ZULU -0.2932
-1.5051 SEEK </s> -0.3010
-1.5051 SEEK BRAVO -0.2932
-1.5051 SEEK DOT -0.2964
-1.5051 SEEK HSALS -0.2430
-1.5051 SEEK KILO -0.2910
-1.5051 SEEK MIKE -0.2985
-1.5051 SEEK OSCAR -0.2961
-1.2041 SEEK PAREN -0.2951
-1.5051 SEEK PLUS -0.2919
-1.5051 SEEK QUEBEC -0.2900
-1.5051 SEEK QUOTE -0.2942
-1.5051 SEEK VICTOR -0.2940
-1.5051 SEEK WHISKEY -0.2970
-1.2041 SEEK XRAY -0.2941
-1.1139 SEVEN DOWN -0.2350
-1.4150 SEVEN EIGHT -0.1871
-1.4150 SEVEN ESCAPE -0.2975
-1.4150 SEVEN LEFT -0.2913
-1.4150 SEVEN NERAP -0.2181
-1.4150 SEVEN NEWLINE -0.2730
-1.4150 SEVEN ONE -0.2937
-1.1139 SEVEN TWO -0.2825
-1.4150 SEVEN UP -0.2230
-1.1139 SEVEN ZERO -0.2762
-1.0792 SHIFT EQUALS -0.1357
-0.7782 SHIFT ESCAPE -0.2905
-1.0792 SHIFT SHIFT -0.2218
-0.7782 SHIFT SPACE -0.2876
-1.5093 SHOOP </s> -0.3010
-2.0212 SHOOP ALPHA -0.2591
-2.6232 SHOOP ASSIGN -0.2963
-2.6232 SHOOP BRAVO -0.2932
-2.1461 SHOOP CAPITALIZE -0.2533
-2.6232 SHOOP CHARLIE -0.2965
-2.6232 SHOOP COLON -0.2770
-2.6232 SHOOP COMMA -0.0414
-2.1461 SHOOP DEFINE -0.1597
-2.3222 SHOOP DELTA -0.2660
-2.6232 SHOOP DOT -0.2724
-2.6232 SHOOP EAST -0.2430
-2.6232 SHOOP ECHO -0.2948
-2.3222 SHOOP ELIF -0.0969
-2.1461 SHOOP ELSE -0.1963
-1.9243 SHOOP ENTER -0.2882
-1.9243 SHOOP ESCAPE -0.2553
-2.3222 SHOOP FALSE -0.0792
-2.6232 SHOOP FIVE -0.2852
-2.6232 SHOOP FOUR -0.2852
-2.3222 SHOOP IF -0.2071
-2.3222 SHOOP INDIA -0.2103
-2.6232 SHOOP ITERATE -0.2788
-1.8451 SHOOP LIMA -0.1511
-2.6232 SHOOP MIKE -0.2269
-2.6232 SHOOP NERAP -0.2717
-2.1461 SHOOP OSCAR -0.2668
-2.6232 SHOOP PAPA -0.2785
-2.6232 SHOOP PAREN -0.2951
-2.3222 SHOOP PLUS -0.2430
-2.6232 SHOOP PREVIOUS -0.2430
-2.6232 SHOOP QUEBEC -0.2788
-2.3222 SHOOP QUOTE -0.2430
-2.6232 SHOOP RETURN -0.1761
-2.6232 SHOOP ROMEO -0.2775
-0.5626 SHOOP SHOOP -0.0669
-2.1461 SHOOP SIERRA -0.2511
-2.3222 SHOOP SPACE -0.2953
-2.0212 SHOOP TANGO -0.2128
-2.3222 SHOOP TICK -0.2802
-2.6232 SHOOP WHILE -0.1963
-2.3222 SHOOP WHISKEY -0.2361
-2.6232 SHOOP XRAY -0.2460
-2.3222 SHOOP ZERO -0.2762
-1.8096 SIERRA </s> -0.3010
-2.4116 SIERRA ALPHA -0.2975
-2.1106 SIERRA ASSIGN -0.2817
-0.9645 SIERRA CHARLIE -0.2218
-2.4116 SIERRA COLON -0.1509
-1.9345 SIERRA DOT -0.2773
-1.4574 SIERRA ECHO -0.2457
-1.9345 SIERRA ENTER -0.2853
-2.4116 SIERRA ESCAPE -0.2975
-1.5085 SIERRA HOTEL -0.2503
-1.9345 SIERRA INDIA -0.2939
-2.4116 SIERRA LIMA -0.2905
-2.4116 SIERRA NERAP -0.2181
-2.4116 SIERRA OSCAR -0.2686
-1.9345 SIERRA PAPA -0.2813
-2.1106 SIERRA PAREN -0.2447
-2.1106 SIERRA QUOTE -0.2942
-1.9345 SIERRA SHOOP -0.1592
-1.9345 SIERRA SIERRA -0.2568
-1.6335 SIERRA SLASH -0.1489
-1.0692 SIERRA SPACE -0.1917
-1.2075 SIERRA TANGO -0.2366
-2.4116 SIERRA TICK -0.2802
-2.4116 SIERRA UNIFORM -0.2910
-2.4116 SIERRA VISUALMODE -0.2285
-2.4116 SIERRA XRAY -0.2798
-2.1106 SIERRA YANKEE -0.2762
-1.3424 SIX </s> -0.3010
-1.3424 SIX DELETE -0.2933
-0.8653 SIX DOWN -0.2811
-1.3424 SIX GOTO -0.2688
-1.3424 SIX NEWLINE -0.2900
-1.3424 SIX SEEK -0.2872
-1.3424 SIX SEVEN -0.2663
-1.3424 SIX UP -0.2230
-1.3424 SIX WORD -0.2696
-1.3424 SLASH BRAVO -0.2771
-1.6435 SLASH FOXTROT -0.2668
-1.6435 SLASH HOTEL -0.2705
-1.3424 SLASH JULIET -0.2511
-1.6435 SLASH MIKE -0.2908
-1.6435 SLASH NOVEMBER -0.2637
-1.3424 SLASH PAPA -0.2785
-1.6435 SLASH ROMEO -0.2737
-1.1663 SLASH TANGO -0.2550
-1.6435 SLASH UNIFORM -0.2910
-0.9445 SLASH VICTOR -0.1714
-1.6435 SLASH WHISKEY -0.2544
-1.6435 SLASH XRAY -0.2834
-0.3332 SNORE </s> -0.3010
-1.4472 SNORE WAKE -0.2808
-0.8846 SOUTH COMPLETE 0.0000
-1.6628 SOUTH EAST -0.2430
-1.6628 SOUTH FORWARD -0.2900
-1.6628 SOUTH NORTH -0.2218
-1.6628 SOUTH RIGHT -0.2976
-0.5488 SOUTH SOUTH -0.0362
-1.8401 SPACE </s> -0.3010
-2.8401 SPACE <breath> 0.0000
-1.6097 SPACE ALPHA -0.2170
-2.0620 SPACE AND -0.0512
-2.5391 SPACE BANG -0.2041
-2.5391 SPACE BRACKET -0.2430
-2.0620 SPACE BRAVO -0.2341
-2.3630 SPACE CAPITALIZE -0.2109
-1.5848 SPACE CHARLIE -0.1005
-2.5391 SPACE COLON -0.2770
-2.5391 SPACE CURLY -0.2218
-2.3630 SPACE DELTA -0.2094
-2.8401 SPACE DOT -0.2917
-2.8401 SPACE ECHO -0.2642
-2.3630 SPACE ELSE -0.1963
-1.7609 SPACE EQUALS -0.1139
-2.0620 SPACE ESCAPE -0.2041
-2.8401 SPACE FALSE -0.2041
-2.5391 SPACE FILEEND -0.2093
-2.8401 SPACE FIVE -0.2852
-2.3630 SPACE FORWARD -0.2175
-2.3630 SPACE FOUR -0.2518
-1.9370 SPACE FOXTROT -0.1536
-2.3630 SPACE GOLF -0.2239
-2.5391 SPACE HSALS -0.1761
-2.3630 SPACE IF -0.1919
-1.5614 SPACE INDIA -0.1737
-2.3630 SPACE JULIET -0.2511
-2.8401 SPACE KILO -0.2910
-2.3630 SPACE LESSER 0.0000
-1.5848 SPACE LIMA -0.1072
-2.3630 SPACE LISTEN -0.2285
-2.5391 SPACE MATCH -0.2711
-2.0620 SPACE MIKE -0.1861
-1.9370 SPACE MINUS -0.0414
-2.3630 SPACE NEWLINE -0.2730
-2.0620 SPACE NOVEMBER -0.2867
-1.9370 SPACE ONE -0.1950
-2.1411 SPACE OR -0.1383
-1.9950 SPACE OSCAR -0.2704
-2.5391 SPACE PAPA -0.2667
-2.5391 SPACE PAREN -0.2921
-1.7262 SPACE PLUS -0.1249
-2.5391 SPACE PREVIOUS -0.2218
-2.3630 SPACE QUEBEC -0.2304
-2.2380 SPACE QUESTION -0.0669
-1.6940 SPACE QUOTE -0.1669
-2.8401 SPACE RIGHT -0.2725
-2.5391 SPACE ROMEO -0.2623
-2.5391 SPACE SHIFT -0.1761
-2.0620 SPACE SHOOP -0.1491
-1.5179 SPACE SIERRA -0.1495
-2.5391 SPACE SIX -0.2596
-2.8401 SPACE SLASH -0.2808
-2.1411 SPACE SPACE -0.2705
-1.7262 SPACE TANGO -0.2128
-2.5391 SPACE TFIHS -0.1761
-2.5391 SPACE THREE -0.2576
-2.3630 SPACE TICK -0.2802
-2.8401 SPACE TILDE -0.2688
-2.5391 SPACE TIMES -0.1249
-2.8401 SPACE TRUE -0.2430
-2.8401 SPACE TWO -0.2919
-2.8401 SPACE UNIFORM -0.2258
-2.0620 SPACE VICTOR -0.1107
-1.8859 SPACE WHISKEY -0.1814
-2.1411 SPACE XRAY -0.2798
-2.5391 SPACE YANKEE -0.2499
-2.3630 SPACE ZERO -0.2499
-2.5391 SPACE ZULU -0.2604
-0.3010 SPELL TILDE -0.2688
-1.2553 TAB EAST -0.2430
-1.2553 TAB FOXTROT -0.2977
-1.2553 TAB INSERT -0.2980
-1.2553 TAB QUOTE -0.2583
-0.9542 TAB TAB -0.2218
-1.2553 TAB WHISKEY -0.2544
-1.2553 TAB XRAY -0.2460
-1.2553 TAB ZULU -0.2852
-1.6965 TANGO </s> -0.3010
-1.7634 TANGO ALPHA -0.1953
-1.8426 TANGO ASSIGN -0.2349
-1.9395 TANGO BRACKET -0.2272
-1.3955 TANGO CAPITALIZE -0.1919
-2.0645 TANGO CHARLIE -0.2802
-2.5416 TANGO COLON -0.1509
-2.2405 TANGO COMMA -0.0414
-2.0645 TANGO DELTA -0.2693
-2.0645 TANGO DOT -0.2624
-1.3375 TANGO ECHO -0.2088
-2.5416 TANGO ENTER -0.2911
-2.5416 TANGO EQUALS -0.2937
-1.7634 TANGO ESCAPE -0.2127
-1.1436 TANGO HOTEL -0.1687
-2.0645 TANGO INDIA -0.2951
-2.5416 TANGO LEFT -0.2962
-2.5416 TANGO LIMA -0.2905
-1.5002 TANGO NERAP -0.0362
-1.5416 TANGO OSCAR -0.2449
-1.8426 TANGO PAREN -0.2099
-2.5416 TANGO QUEBEC -0.2175
-2.2405 TANGO QUOTE -0.2620
-2.0645 TANGO ROMEO -0.2001
-1.9395 TANGO SCORE -0.2374
-1.6965 TANGO SHOOP -0.1417
-2.5416 TANGO SIERRA -0.2623
-1.3375 TANGO SPACE -0.2107
-2.2405 TANGO TICK -0.2730
-2.0645 TANGO UNIFORM -0.2756
-2.5416 TANGO WHISKEY -0.2929
-1.8426 TANGO XRAY -0.2725
-2.5416 TANGO YANKEE -0.2762
-0.8751 TEKCARB </s> -0.3010
-1.1761 TEKCARB ASSIGN -0.2817
-1.4771 TEKCARB COLON -0.1509
-1.0000 TEKCARB ENTER -0.2751
-1.4771 TEKCARB ESCAPE -0.2975
-1.4771 TEKCARB SAVE -0.1249
-1.0000 TEKCARB SPACE -0.2922
-0.6021 TFIHS ESCAPE -0.2905
-0.6021 TFIHS SPACE -0.2876
-1.6232 THREE BIGWORD -0.2374
-1.3222 THREE COMMA -0.0414
-1.3222 THREE DOWN -0.2840
-1.6232 THREE EIGHT -0.1871
-1.6232 THREE GOTO -0.2906
-1.6232 THREE KEES -0.2730
-1.6232 THREE LEFT -0.2913
-1.6232 THREE NEWLINE -0.2844
-1.3222 THREE NINE -0.2139
-1.6232 THREE SEEK -0.2872
-1.6232 THREE SIX -0.2808
-1.3222 THREE TWO -0.2825
-1.3222 THREE UP -0.2890
-1.6232 THREE WORD -0.2908
-1.3222 THREE ZERO -0.2676
-1.5051 TICK </s> -0.3010
-1.5051 TICK ALPHA -0.2975
-1.8062 TICK CHARLIE -0.2583
-1.8062 TICK COLON -0.2770
-1.8062 TICK COMMA -0.0414
-1.8062 TICK ESCAPE -0.2833
-1.8062 TICK FOXTROT -0.2910
-1.8062 TICK GOLF -0.2960
-1.8062 TICK HOTEL -0.2973
-1.8062 TICK KILO -0.2910
-1.8062 TICK LISTEN -0.2840
-1.3291 TICK NERAP -0.2475
-1.8062 TICK NETSIL -0.2808
-1.8062 TICK PLUS -0.2919
-1.8062 TICK ROMEO -0.2993
-1.3291 TICK SHOOP -0.1491
-1.8062 TICK SNORE -0.0300
-1.8062 TICK SPACE -0.2947
-1.3291 TICK TEKCARB -0.1663
-1.8062 TICK TICK -0.2802
-1.8062 TICK TILDE -0.2688
-1.8062 TICK WHISKEY -0.2970
-1.8062 TICK XRAY -0.2976
-1.8062 TICK YLRUC -0.2632
-1.1461 TILDE BRAVO -0.2771
-1.1461 TILDE DELTA -0.2949
-1.1461 TILDE IF -0.2762
-1.1461 TILDE JULIET -0.2915
-1.1461 TILDE NOVEMBER -0.2814
-1.1461 TILDE ROMEO -0.2993
-1.1461 TILDE SHOOP -0.1621
-0.4771 TIMES SPACE -0.2960
-0.7782 TIMES UNIFORM -0.2961
-0.9031 TRUE </s> -0.3010
-0.9031 TRUE ENTER -0.2982
-0.9031 TRUE ESCAPE -0.2958
-0.9031 TRUE TEKCARB -0.2389
-1.6812 TWO BACK -0.2314
-1.6812 TWO COMMA -0.0414
-1.3802 TWO DOWN -0.2926
-0.9823 TWO EIGHT -0.1413
-1.6812 TWO FIVE -0.2852
-1.3802 TWO GOTO -0.1963
-1.6812 TWO NEWLINE -0.2900
-1.6812 TWO NINE -0.2374
-1.6812 TWO RIGHT -0.1919
-1.3802 TWO SEEK -0.2430
-1.6812 TWO SIX -0.2808
-1.3802 TWO UP -0.2195
-1.6812 TWO WHISKEY -0.2846
-1.6812 TWO XRAY -0.2870
-1.3802 TWO ZERO -0.2676
-1.2553 UNDO DOWN -0.2897
-0.9542 UNDO LEFT -0.1392
-0.9542 UNDO NEWLINE -0.2844
-1.2553 UNDO REDO 0.0000
-1.2553 UNDO SEVEN -0.2663
-0.9542 UNDO UNDO -0.2218
-1.9445 UNIFORM </s> -0.3010
-1.6435 UNIFORM ALPHA -0.2797
-1.6435 UNIFORM CHARLIE -0.2942
-1.3424 UNIFORM ECHO -0.2433
-1.9445 UNIFORM FILEBEGIN -0.2632
-1.9445 UNIFORM FOXTROT -0.2944
-1.6435 UNIFORM GOLF -0.2642
-1.6435 UNIFORM INDIA -0.2975
-1.9445 UNIFORM MIC 0.0000
-1.2455 UNIFORM MIKE -0.1990
-0.7984 UNIFORM NOVEMBER -0.2623
-1.6435 UNIFORM PAPA -0.2955
-1.9445 UNIFORM SCORE -0.2808
-1.9445 UNIFORM SHOOP -0.2979
-1.9445 UNIFORM SIERRA -0.2993
-1.9445 UNIFORM SOUTH -0.2403
-1.9445 UNIFORM TANGO -0.2973
-1.6435 UNIFORM VICTOR -0.2868
-2.1644 UP </s> -0.3010
-1.8633 UP APPEND -0.2808
-2.1644 UP BACK -0.2929
-2.1644 UP BIGBACK -0.2840
-2.1644 UP CAPITALIZE -0.2857
-2.1644 UP CARROT -0.1461
-1.5623 UP DELETE -0.1984
-1.3193 UP DOLLA -0.0714
-1.6872 UP DOWN -0.2350
-2.1644 UP ELIF -0.0969
-1.8633 UP END -0.2374
-2.1644 UP FILEEND -0.2906
-1.4654 UP LEFT -0.1176
-1.8633 UP NEWLINE -0.2844
-2.1644 UP PASTE -0.1249
-2.1644 UP PREVIOUS -0.2632
-1.6872 UP RIGHT -0.1874
-2.1644 UP SEEK -0.2872
-1.8633 UP SPACE -0.2941
-2.1644 UP THREE -0.2906
-0.7841 UP UP -0.0909
-1.5623 UP WHISKEY -0.2762
-1.5623 UP WORD -0.2239
-1.3153 VICTOR </s> -0.3010
-1.7924 VICTOR ALPHA -0.2993
-1.7924 VICTOR CHARLIE -0.2965
-1.7924 VICTOR COLON -0.2909
-1.7924 VICTOR COMMA -0.0414
-1.7924 VICTOR DELTA -0.2949
-0.9473 VICTOR ECHO -0.2619
-1.7924 VICTOR EQUALS -0.2937
-1.7924 VICTOR ESCAPE -0.2610
-1.0142 VICTOR INDIA -0.2494
-1.4914 VICTOR NERAP -0.2181
-1.3153 VICTOR OSCAR -0.2894
-1.7924 VICTOR REPLACE -0.2863
-1.4914 VICTOR SPACE -0.2915
-0.9031 VISUALBLOCK DOWN -0.2446
-0.9031 VISUALBLOCK ESCAPE -0.2993
-0.6021 VISUALBLOCK FOUR -0.2156
-1.0000 VISUALLINE DOWN -0.2954
-1.3010 VISUALLINE FILEEND -0.2906
-1.3010 VISUALLINE FIVE -0.2688
-1.0000 VISUALLINE FOUR -0.2156
-1.3010 VISUALLINE SIX -0.2374
-1.3010 VISUALLINE THREE -0.2798
-1.0000 VISUALLINE TWO -0.2825
-1.4150 VISUALMODE </s> -0.3010
-1.4150 VISUALMODE CAPITALIZE -0.2950
-0.8129 VISUALMODE DOLLA -0.1326
-0.8129 VISUALMODE END -0.2139
-1.4150 VISUALMODE THREE -0.2906
-1.1139 VISUALMODE WORD -0.2299
-1.3424 WAKE APPEND -0.2944
-1.3424 WAKE DEFINE -0.2762
-1.3424 WAKE DOWN -0.2982
-1.3424 WAKE FILEEND -0.2798
-1.3424 WAKE LISTEN -0.2840
-1.3424 WAKE MIDDLE -0.2430
-1.3424 WAKE NETSIL -0.2808
-1.0414 WAKE SEVEN -0.2663
-1.3424 WAKE SLASH -0.2486
-1.3424 WAKE WHILE -0.1963
-0.9031 WEST HUG -0.2218
-0.9031 WEST NETSIL -0.2596
-0.9031 WEST PLUS -0.2825
-0.9031 WEST QUIT -0.1597
-1.1461 WHILE CHARLIE -0.2942
-0.6690 WHILE PAREN -0.2861
-0.6690 WHILE SPACE -0.2732
-1.4314 WHISKEY </s> -0.3010
-2.0334 WHISKEY APPEND -0.2877
-1.7324 WHISKEY ASSIGN -0.2563
-2.0334 WHISKEY BIGWORD -0.2808
-1.7324 WHISKEY COMPLETE -0.1891
-2.0334 WHISKEY DELETE -0.2972
-2.0334 WHISKEY DOT -0.2964
-2.0334 WHISKEY ECHO -0.2989
-2.0334 WHISKEY FIVE -0.2852
-2.0334 WHISKEY FOUR -0.2852
-2.0334 WHISKEY HOTEL -0.2745
-0.9920 WHISKEY INDIA -0.2766
-1.7324 WHISKEY MATCH -0.2711
-2.0334 WHISKEY NOVEMBER -0.2985
-1.4314 WHISKEY OSCAR -0.2560
-2.0334 WHISKEY QUEBEC -0.2788
-2.0334 WHISKEY REPLACE -0.2863
-2.0334 WHISKEY RIGHT -0.1919
-1.2553 WHISKEY ROMEO -0.2154
-2.0334 WHISKEY SEEK -0.2872
-2.0334 WHISKEY SEVEN -0.2663
-2.0334 WHISKEY SHOOP -0.3000
-1.7324 WHISKEY SPACE -0.2850
-2.0334 WHISKEY TEKCARB -0.2389
-2.0334 WHISKEY TICK -0.2802
-1.4314 WHISKEY WHISKEY -0.2804
-1.6335 WORD </s> -0.3010
-1.6335 WORD AGAIN -0.2218
-1.6335 WORD APPEND -0.2877
-1.9345 WORD BACK -0.2762
-1.6335 WORD BIGWORD -0.2374
-1.6335 WORD COPY 0.0000
-1.9345 WORD CUT -0.2218
-1.1563 WORD DELETE -0.2309
-1.1563 WORD INSERT -0.2593
-1.9345 WORD NEXT -0.2788
-1.9345 WORD PASTE -0.1249
-1.9345 WORD PREVIOUS -0.2825
-1.6335 WORD RIGHT -0.2499
-1.9345 WORD VISUALMODE -0.2840
-0.8206 WORD WORD -0.1069
-1.4983 XRAY </s> -0.3010
-2.1004 XRAY AGAIN -0.2632
-1.3222 XRAY ASSIGN -0.2403
-2.1004 XRAY BACK -0.2846
-2.1004 XRAY BIGBACK -0.2285
-2.1004 XRAY CAPITALIZE -0.2980
-2.1004 XRAY COLON -0.2977
-2.1004 XRAY COMMA -0.0414
-2.1004 XRAY ESCAPE -0.2648
-1.7993 XRAY INSERT -0.2918
-2.1004 XRAY LEFT -0.1597
-1.7993 XRAY PAREN -0.2579
-1.6232 XRAY PLUS -0.2430
-2.1004 XRAY REPLACE -0.2863
-1.4014 XRAY ROMEO -0.2812
-1.7993 XRAY SAVE -0.1249
-1.4983 XRAY SHOOP -0.1549
-2.1004 XRAY SNORE -0.0300
-0.9243 XRAY SPACE -0.2505
-1.4983 XRAY TANGO -0.2935
-2.1004 XRAY TEKCARB -0.2711
-2.1004 XRAY TICK -0.2942
-1.4983 XRAY XRAY -0.2614
-1.2553 YANKEE </s> -0.3010
-1.5563 YANKEE ASSIGN -0.2915
-1.5563 YANKEE ENTER -0.2982
-1.5563 YANKEE ESCAPE -0.2958
-1.5563 YANKEE OSCAR -0.2994
-1.5563 YANKEE QUOTE -0.2837
-1.5563 YANKEE SCORE -0.2910
-1.2553 YANKEE SIERRA -0.2908
-1.2553 YANKEE SNORE -0.0300
-0.7782 YANKEE SPACE -0.2691
-0.4771 YLRUC </s> -0.3010
-1.0792 YLRUC COMMA -0.0414
-1.0792 YLRUC ENTER -0.2982
-1.4314 ZERO </s> -0.3010
-1.7324 ZERO CAPITALIZE -0.2857
-1.4314 ZERO COMMA -0.0414
-1.2553 ZERO DOT -0.2674
-1.4314 ZERO DOWN -0.2897
-1.7324 ZERO ENTER -0.2940
-1.2553 ZERO ESCAPE -0.2533
-1.2553 ZERO GOTO -0.1691
-1.4314 ZERO INSERT -0.2886
-1.7324 ZERO ITERATE -0.2788
-1.2553 ZERO NERAP -0.1296
-1.7324 ZERO SHOOP -0.1621
-1.7324 ZERO SIX -0.2808
-1.7324 ZERO TWO -0.2919
-1.7324 ZERO ZERO -0.2846
-1.7482 ZULU BRACKET -0.2583
-1.4472 ZULU DOT -0.2821
-1.1461 ZULU ECHO -0.2808
-1.7482 ZULU ENTER -0.2882
-1.7482 ZULU EQUALS -0.2937
-1.4472 ZULU SPACE -0.2805
-1.7482 ZULU TANGO -0.2973
-1.7482 ZULU UNIFORM -0.2756
-1.7482 ZULU UP -0.2230
-1.7482 ZULU YLRUC -0.1249
-0.6342 ZULU ZULU -0.1761

\3-grams:
-0.3010 <breath> <sil> NOVEMBER
-0.6690 <s> ALPHA ROMEO
-1.1461 <s> ALPHA SHOOP
-1.1461 <s> ALPHA SPACE
-1.1461 <s> ALPHA TANGO
-1.1461 <s> ALPHA XRAY
-0.7782 <s> APPEND COLON
-0.4771 <s> APPEND ENTER
-0.6021 <s> ASSIGN FOXTROT
-0.6021 <s> ASSIGN OSCAR
-0.3010 <s> BACK BACK
-0.3010 <s> BACKWARD WORD
-0.3010 <s> BIGBACK BACK
-0.3010 <s> BIGWORD BIGWORD
-0.6021 <s> BRACKET INDIA
-0.6021 <s> BRACKET QUOTE
-0.6021 <s> BRAVO ECHO
-0.6021 <s> BRAVO NERAP
-0.7782 <s> CAPITALIZE FOXTROT
-0.7782 <s> CAPITALIZE LIMA
-0.7782 <s> CAPITALIZE SIERRA
-0.9031 <s> CHARLIE ECHO
-0.9031 <s> CHARLIE LIMA
-0.6021 <s> CHARLIE OSCAR
-0.6021 <s> COLON ENTER
-0.6021 <s> COLON QUEBEC
-0.3010 <s> COMMA SPACE
-0.3010 <s> CURLY ONE
-0.3010 <s> DELETE FILEEND
-0.6021 <s> DELTA CAPITALIZE
-0.9031 <s> DELTA ECHO
-0.9031 <s> DELTA SPACE
-0.7782 <s> DOLLA BACK
-0.4771 <s> DOLLA BIGBACK
-0.7782 <s> DOWN CAPITALIZE
-0.7782 <s> DOWN DOWN
-0.7782 <s> DOWN NEWLINE
-1.3802 <s> ECHO BRACKET
-1.3802 <s> ECHO KILO
-1.3802 <s> ECHO LIMA
-0.7782 <s> ECHO NOVEMBER
-1.3802 <s> ECHO PAPA
-1.3802 <s> ECHO SIERRA
-1.3802 <s> ECHO VICTOR
-1.0792 <s> ECHO XRAY
-0.6021 <s> EGAP EGAP
-0.6021 <s> EGAP UP
-0.3010 <s> EIGHT GOTO
-1.1461 <s> ENTER CHARLIE
-1.1461 <s> ENTER ENTER
-0.8451 <s> ENTER ESCAPE
-1.1461 <s> ENTER LIMA
-1.1461 <s> ENTER QUIT
-1.1461 <s> ENTER SHOOP
-0.3010 <s> EQUALS SIERRA
-1.2041 <s> ESCAPE BACKWARD
-1.2041 <s> ESCAPE DOWN
-1.2041 <s> ESCAPE SAVE
-1.2041 <s> ESCAPE UNDO
-0.6021 <s> ESCAPE UP
-0.3010 <s> FILEBEGIN INSERT
-1.1461 <s> FILEEND EGAP
-1.1461 <s> FILEEND FORWARD
-1.1461 <s> FILEEND HIGH
-0.6690 <s> FILEEND NEWLINE
-1.1461 <s> FILEEND UP
-0.3010 <s> FIVE GOTO
-0.6021 <s> FORWARD FORWARD
-0.9031 <s> FORWARD PAGE
-0.9031 <s> FORWARD TWO
-0.3010 <s> FOUR FIVE
-0.3010 <s> FOXTROT INDIA
-0.3010 <s> GOLF SPACE
-0.7782 <s> HIGH DOWN
-0.7782 <s> HIGH EGAP
-0.7782 <s> HIGH VISUALLINE
-0.3010 <s> HOTEL OSCAR
-0.9031 <s> IF LISTEN
-0.9031 <s> IF PAREN
-0.9031 <s> IF SHOOP
-0.9031 <s> IF TANGO
-1.1461 <s> INDIA MIKE
-1.1461 <s> INDIA NOVEMBER
-0.8451 <s> INDIA PAPA
-0.8451 <s> INDIA TANGO
-1.1461 <s> INDIA ZULU
-1.3424 <s> INSERT COMMA
-1.3424 <s> INSERT CURLY
-1.3424 <s> INSERT ENTER
-1.3424 <s> INSERT FOXTROT
-1.3424 <s> INSERT HOTEL
-1.3424 <s> INSERT IF
-1.3424 <s> INSERT INDIA
-1.3424 <s> INSERT ITERATE
-1.3424 <s> INSERT QUOTE
-1.3424 <s> INSERT SHOOP
-1.3424 <s> INSERT YANKEE
-0.3010 <s> ITERATE HOTEL
-0.3010 <s> KEES FOXTROT
-0.3010 <s> LEFT LEFT
-0.3010 <s> LESSER SPACE
-0.6990 <s> LIMA ECHO
-0.6990 <s> LIMA INDIA
-1.0000 <s> LIMA SCORE
-0.6021 <s> LOW DOLLA
-0.6021 <s> LOW PAGE
-0.3010 <s> MATCH SIERRA
-0.6021 <s> MIKE ALPHA
-0.9031 <s> MIKE CAPITALIZE
-0.9031 <s> MIKE NERAP
-0.6021 <s> NERAP ESCAPE
-0.9031 <s> NERAP SHOOP
-0.9031 <s> NERAP SPACE
-0.6021 <s> NEWLINE IF
-0.6021 <s> NEWLINE VICTOR
-0.3010 <s> NEXT REPLACE
-0.6021 <s> NINE DOWN
-0.6021 <s> NINE SEVEN
-0.3010 <s> NOVEMBER ALPHA
-0.9031 <s> ONE DELETE
-0.9031 <s> ONE EIGHT
-0.9031 <s> ONE THREE
-0.9031 <s> ONE ZERO
-1.0792 <s> OSCAR MIKE
-1.0792 <s> OSCAR PAPA
-0.6021 <s> OSCAR ROMEO
-1.0792 <s> OSCAR UNIFORM
-0.4771 <s> PAGE DOWN
-1.0792 <s> PAGE EGAP
-1.0792 <s> PAGE PAGE
-0.3979 <s> PAPA TANGO
-1.0000 <s> PAPA YANKEE
-1.0000 <s> PAREN LIMA
-1.0000 <s> PAREN SHOOP
-1.0000 <s> PAREN SIERRA
-1.0000 <s> PAREN TANGO
-1.0000 <s> PAREN TICK
-0.3010 <s> PLUS INDIA
-0.3010 <s> PREVIOUS INSERT
-0.9031 <s> QUOTE HSALS
-0.9031 <s> QUOTE LISTEN
-0.9031 <s> QUOTE SPACE
-0.9031 <s> QUOTE TILDE
-1.0000 <s> RIGHT APPEND
-1.0000 <s> RIGHT DOWN
-0.6990 <s> RIGHT REPLACE
-1.0000 <s> RIGHT RIGHT
-1.0792 <s> ROMEO DELTA
-0.3802 <s> ROMEO INDIA
-0.3010 <s> SAVE QUIT
-1.0792 <s> SHOOP ASSIGN
-1.0792 <s> SHOOP CAPITALIZE
-0.4771 <s> SHOOP SHOOP
-1.0792 <s> SIERRA ECHO
-1.0792 <s> SIERRA HOTEL
-1.0792 <s> SIERRA LIMA
-1.0792 <s> SIERRA SPACE
-0.7782 <s> SIERRA TANGO
-0.3010 <s> SIX DOWN
-0.7782 <s> SLASH MIKE
-0.7782 <s> SLASH TANGO
-0.7782 <s> SLASH XRAY
-1.2553 <s> SPACE ALPHA
-1.2553 <s> SPACE BRAVO
-1.2553 <s> SPACE DELTA
-1.2553 <s> SPACE FOXTROT
-0.9542 <s> SPACE LIMA
-0.9542 <s> SPACE SIERRA
-1.2553 <s> SPACE TANGO
-0.7782 <s> TANGO ASSIGN
-0.7782 <s> TANGO SPACE
-0.7782 <s> TANGO TICK
-0.9031 <s> THREE GOTO
-0.9031 <s> THREE KEES
-0.9031 <s> THREE NEWLINE
-0.9031 <s> THREE NINE
-0.3010 <s> TICK NERAP
-0.7782 <s> TWO EIGHT
-0.7782 <s> TWO UP
-0.7782 <s> TWO XRAY
-0.3010 <s> UNDO UNDO
-1.0792 <s> UP CAPITALIZE
-1.0792 <s> UP DELETE
-1.0792 <s> UP DOLLA
-0.7782 <s> UP DOWN
-1.0792 <s> UP LEFT
-0.3010 <s> VICTOR INDIA
-0.6021 <s> VISUALBLOCK DOWN
-0.6021 <s> VISUALBLOCK FOUR
-1.1461 <s> VISUALLINE DOWN
-1.1461 <s> VISUALLINE FILEEND
-1.1461 <s> VISUALLINE FIVE
-1.1461 <s> VISUALLINE FOUR
-1.1461 <s> VISUALLINE SIX
-0.8451 <s> VISUALLINE TWO
-0.7782 <s> VISUALMODE DOLLA
-0.7782 <s> VISUALMODE END
-0.7782 <s> VISUALMODE WORD
-1.3010 <s> WAKE APPEND
-1.3010 <s> WAKE DEFINE
-1.3010 <s> WAKE DOWN
-1.3010 <s> WAKE FILEEND
-1.3010 <s> WAKE LISTEN
-1.3010 <s> WAKE MIDDLE
-1.0000 <s> WAKE SEVEN
-1.3010 <s> WAKE SLASH
-1.3010 <s> WAKE WHILE
-0.3010 <s> WEST HUG
-0.3010 <s> WHILE PAREN
-0.6021 <s> WHISKEY INDIA
-0.6021 <s> WHISKEY NOVEMBER
-0.3010 <s> WORD WORD
-0.7782 <s> XRAY BIGBACK
-0.7782 <s> XRAY PLUS
-0.7782 <s> XRAY SHOOP
-0.3010 <sil> NOVEMBER UNIFORM
-0.3010 AGAIN AGAIN PREVIOUS
-0.3010 AGAIN CAPITALIZE SAVE
-0.3010 AGAIN INSERT MINUS
-0.3010 AGAIN PREVIOUS DELETE
-0.3010 AGAIN REPLACE APPEND
-0.3010 AGAIN VISUALMODE CAPITALIZE
-0.3010 ALPHA BRAVO SPACE
-0.4260 ALPHA CHARLIE ECHO
-0.9031 ALPHA CHARLIE TANGO
-0.3010 ALPHA COLON ENTER
-0.9031 ALPHA DELTA ENTER
-0.9031 ALPHA DELTA LIMA
-0.9031 ALPHA DELTA PAREN
-0.9031 ALPHA DELTA SHOOP
-0.3010 ALPHA DOT SIERRA
-0.3010 ALPHA ENTER KEES
-0.6021 ALPHA ESCAPE </s>
-0.6021 ALPHA ESCAPE COLON
-0.3010 ALPHA GOLF ENTER
-0.6021 ALPHA INDIA MIKE
-0.6021 ALPHA INDIA NOVEMBER
-0.6021 ALPHA KILO ESCAPE
-0.6021 ALPHA KILO INDIA
-1.3010 ALPHA LIMA </s>
-1.3010 ALPHA LIMA INDIA
-0.6990 ALPHA LIMA LIMA
-1.3010 ALPHA LIMA PAREN
-1.3010 ALPHA LIMA SHOOP
-1.3010 ALPHA LIMA SIERRA
-1.3010 ALPHA LIMA SPACE
-1.0792 ALPHA MIKE DELTA
-0.3802 ALPHA MIKE ECHO
-1.5798 ALPHA NOVEMBER </s>
-1.5798 ALPHA NOVEMBER COMMA
-0.8808 ALPHA NOVEMBER DELTA
-1.5798 ALPHA NOVEMBER EQUALS
-1.5798 ALPHA NOVEMBER ESCAPE
-0.9777 ALPHA NOVEMBER GOLF
-1.5798 ALPHA NOVEMBER INDIA
-1.5798 ALPHA NOVEMBER SHOOP
-1.2788 ALPHA NOVEMBER SPACE
-1.2788 ALPHA NOVEMBER TANGO
-0.3010 ALPHA OSCAR ESCAPE
-1.3802 ALPHA PAPA </s>
-1.3802 ALPHA PAPA ALPHA
-1.3802 ALPHA PAPA ASSIGN
-1.0792 ALPHA PAPA DOT
-1.3802 ALPHA PAPA ENTER
-1.0792 ALPHA PAPA FOXTROT
-1.3802 ALPHA PAPA NERAP
-1.0792 ALPHA PAPA PAREN
-1.3802 ALPHA PAPA SIERRA
-0.3010 ALPHA QUOTE TEKCARB
-1.3802 ALPHA ROMEO ALPHA
-1.0792 ALPHA ROMEO CAPITALIZE
-1.3802 ALPHA ROMEO CHARLIE
-1.0792 ALPHA ROMEO ECHO
-1.3802 ALPHA ROMEO ENTER
-0.9031 ALPHA ROMEO GOLF
-1.3802 ALPHA ROMEO ROMEO
-1.3802 ALPHA ROMEO SIERRA
-0.3010 ALPHA SCORE BRAVO
-0.4260 ALPHA SHOOP SHOOP
-0.9031 ALPHA SHOOP TICK
-0.9031 ALPHA SIERRA SIERRA
-0.4260 ALPHA SIERRA SPACE
-0.3010 ALPHA SOUTH NORTH
-1.3010 ALPHA SPACE </s>
-1.3010 ALPHA SPACE ALPHA
-1.3010 ALPHA SPACE BANG
-1.3010 ALPHA SPACE EQUALS
-1.0000 ALPHA SPACE NOVEMBER
-1.3010 ALPHA SPACE PAPA
-1.3010 ALPHA SPACE PLUS
-1.3010 ALPHA SPACE SHOOP
-1.3010 ALPHA SPACE SIERRA
-1.4150 ALPHA TANGO ALPHA
-0.9379 ALPHA TANGO CHARLIE
-1.1139 ALPHA TANGO ECHO
-1.1139 ALPHA TANGO ESCAPE
-0.8129 ALPHA TANGO HOTEL
-1.4150 ALPHA TANGO NERAP
-0.6021 ALPHA TICK NERAP
-0.6021 ALPHA TICK TEKCARB
-0.6021 ALPHA VICTOR ECHO
-0.6021 ALPHA VICTOR OSCAR
-0.3010 ALPHA XRAY PAREN
-0.3010 ALPHA YANKEE ENTER
-0.3010 AND ALPHA LIMA
-0.3010 AND BRAVO SNORE
-0.6021 AND CHARLIE ALPHA
-0.6021 AND CHARLIE DOT
-0.3010 AND ENTER </s>
-0.3010 AND ESCAPE NEWLINE
-0.6021 AND SPACE ROMEO
-0.6021 AND SPACE WHISKEY
-0.7782 APPEND COLON </s>
-0.7782 APPEND COLON ENTER
-0.7782 APPEND COLON ESCAPE
-0.3010 APPEND COMMA SPACE
-0.3010 APPEND CURLY QUOTE
-0.7782 APPEND ENTER LISTEN
-0.7782 APPEND ENTER QUEBEC
-0.7782 APPEND ENTER TAB
-0.3010 APPEND GOTO WEST
-0.3010 APPEND KILO ASSIGN
-0.3010 APPEND LIMA INDIA
-0.4260 APPEND NERAP ESCAPE
-0.9031 APPEND NERAP HOTEL
-0.3010 APPEND NOVEMBER DELTA
-0.3010 APPEND OSCAR SIERRA
-0.6021 APPEND PAREN CHARLIE
-0.6021 APPEND PAREN ROMEO
-0.3010 APPEND PASTE SPACE
-0.3010 APPEND QUEBEC UNIFORM
-0.3010 APPEND QUOTE SHOOP
-0.3010 APPEND ROMEO ECHO
-0.3010 APPEND SHOOP SHOOP
-0.3010 APPEND SIERRA CHARLIE
-0.7782 APPEND SPACE ALPHA
-0.7782 APPEND SPACE PLUS
-0.7782 APPEND SPACE SHOOP
-0.6021 APPEND TRUE </s>
-0.6021 APPEND TRUE ESCAPE
-0.3010 APPEND WHISKEY ASSIGN
-0.6021 ASSIGN BRACKET DELTA
-0.6021 ASSIGN BRACKET TEKCARB
-0.3010 ASSIGN CHARLIE UNIFORM
-0.6021 ASSIGN ESCAPE SAVE
-0.6021 ASSIGN ESCAPE UP
-0.3010 ASSIGN FALSE ENTER
-0.3010 ASSIGN FOUR ZERO
-1.0000 ASSIGN FOXTROT ALPHA
-0.6990 ASSIGN FOXTROT DOT
-1.0000 ASSIGN FOXTROT INDIA
-1.0000 ASSIGN FOXTROT LIMA
-0.3010 ASSIGN GOLF ECHO
-0.3010 ASSIGN JULIET ESCAPE
-1.0000 ASSIGN KILO DOT
-1.0000 ASSIGN KILO INDIA
-0.6990 ASSIGN KILO SPACE
-1.0000 ASSIGN KILO TIMES
-0.7782 ASSIGN LIMA ECHO
-0.7782 ASSIGN LIMA INDIA
-0.7782 ASSIGN LIMA SHOOP
-0.6021 ASSIGN MIKE </s>
-0.6021 ASSIGN MIKE INDIA
-0.3010 ASSIGN NOVEMBER AGAIN
-0.3010 ASSIGN ONE NINE
-0.3010 ASSIGN OSCAR PAPA
-0.6021 ASSIGN QUOTE ALPHA
-0.6021 ASSIGN QUOTE QUOTE
-0.3010 ASSIGN ROMEO INDIA
-0.3010 ASSIGN SHOOP SHOOP
-0.3010 ASSIGN SIERRA CHARLIE
-0.6021 ASSIGN TICK FOXTROT
-0.6021 ASSIGN TICK TICK
-0.3010 ASSIGN TRUE ENTER
-0.3010 ASSIGN TWO EIGHT
-0.6021 ASSIGN WHISKEY </s>
-0.6021 ASSIGN WHISKEY OSCAR
-0.9031 ASSIGN ZERO </s>
-0.9031 ASSIGN ZERO ENTER
-0.6021 ASSIGN ZERO ESCAPE
-0.3010 ASSIGN ZULU DOT
-1.2041 BACK BACK </s>
-0.9031 BACK BACK BACK
-1.2041 BACK BACK END
-0.7270 BACK BACK INSERT
-1.2041 BACK BACK VISUALMODE
-0.3010 BACK BIGBACK INSERT
-0.3010 BACK COPY ESCAPE
-0.7782 BACK DELETE BACK
-0.7782 BACK DELETE DOLLA
-0.7782 BACK DELETE WORD
-0.3010 BACK DOWN FILEEND
-0.3010 BACK END INSERT
-1.0792 BACK INSERT FOXTROT
-1.0792 BACK INSERT INDIA
-1.0792 BACK INSERT QUOTE
-1.0792 BACK INSERT SHOOP
-1.0792 BACK INSERT SIERRA
-1.0792 BACK INSERT UNIFORM
-0.3010 BACK TWO BACK
-0.3010 BACK VISUALMODE WORD
-0.3010 BACK XRAY REPLACE
-0.3010 BACK ZERO DOWN
-0.3010 BACKWARD BACKWARD THREE
-0.3010 BACKWARD NETSIL SPACE
-0.3010 BACKWARD QUIT ENTER
-0.3010 BACKWARD SNORE </s>
-0.3010 BACKWARD THREE ZERO
-0.6021 BACKWARD UP DOLLA
-0.6021 BACKWARD UP UP
-0.3010 BACKWARD WORD AGAIN
-0.3010 BANG ENTER </s>
-0.3010 BANG EQUALS SPACE
-0.3010 BANG LLEPS INSERT
-0.3010 BANG PAREN HOTEL
-0.3010 BIGBACK BACK DELETE
-0.6021 BIGBACK BIGBACK BIGBACK
-0.9031 BIGBACK BIGBACK RIGHT
-0.9031 BIGBACK BIGBACK UNDO
-0.3010 BIGBACK DELETE ZERO
-0.7782 BIGBACK INSERT JULIET
-0.7782 BIGBACK INSERT QUOTE
-0.7782 BIGBACK INSERT VICTOR
-0.3010 BIGBACK RIGHT RIGHT
-0.3010 BIGBACK UNDO LEFT
-0.3010 BIGBACK VISUALMODE END
-0.3010 BIGBACK WORD WORD
-0.3010 BIGWORD BIGBACK WORD
-0.7782 BIGWORD BIGWORD INSERT
-0.7782 BIGWORD BIGWORD LEFT
-0.7782 BIGWORD BIGWORD RIGHT
-0.3010 BIGWORD INSERT SHOOP
-0.3010 BIGWORD LEFT LEFT
-0.3010 BIGWORD MATCH XRAY
-0.7782 BIGWORD RIGHT DELETE
-0.7782 BIGWORD RIGHT INSERT
-0.7782 BIGWORD RIGHT RIGHT
-0.3010 BIGWORD UP DOLLA
-0.3010 BRACKET BRACKET RIGHT
-0.3010 BRACKET DELTA UNIFORM
-0.3010 BRACKET FALSE COMMA
-0.3979 BRACKET INDIA NOVEMBER
-1.0000 BRACKET INDIA TEKCARB
-0.3010 BRACKET QUOTE SIERRA
-0.3010 BRACKET RIGHT RIGHT
-0.3010 BRACKET TEKCARB ENTER
-0.7782 BRACKET TICK ALPHA
-0.7782 BRACKET TICK KILO
-0.7782 BRACKET TICK WHISKEY
-0.3010 BRACKET TWO FIVE
-0.3010 BRACKET WHISKEY TEKCARB
-0.3010 BRAVO ASSIGN ZULU
-0.3010 BRAVO DELTA ALPHA
-0.6021 BRAVO DOT COMPLETE
-0.6021 BRAVO DOT WHISKEY
-0.6021 BRAVO ECHO ROMEO
-0.6021 BRAVO ECHO SIERRA
-0.3010 BRAVO ENTER NEXT
-0.3010 BRAVO ESCAPE BACKWARD
-0.3010 BRAVO INDA LIMA
-0.3010 BRAVO INDIA ROMEO
-0.3010 BRAVO MIKE WHISKEY
-0.3010 BRAVO NERAP COLON
-0.3010 BRAVO NEXT VISUALMODE
-0.6021 BRAVO OSCAR OSCAR
-0.6021 BRAVO OSCAR XRAY
-0.3010 BRAVO QUOTE COLON
-0.4771 BRAVO ROMEO ALPHA
-0.7782 BRAVO ROMEO ECHO
-0.3010 BRAVO SCORE CHARLIE
-0.3010 BRAVO SIERRA TANGO
-0.3010 BRAVO SNORE </s>
-0.7782 BRAVO SPACE EQUALS
-0.7782 BRAVO SPACE MINUS
-0.7782 BRAVO SPACE PLUS
-0.6021 BRAVO UNIFORM NOVEMBER
-0.6021 BRAVO UNIFORM TANGO
-0.3010 BRAVO YANKEE ESCAPE
-0.3010 CAPITALIZE ALPHA COLON
-0.3010 CAPITALIZE CHARLIE OSCAR
-0.9031 CAPITALIZE DELTA </s>
-0.4260 CAPITALIZE DELTA ECHO
-0.6021 CAPITALIZE ESCAPE </s>
-0.6021 CAPITALIZE ESCAPE BACK
-0.6601 CAPITALIZE FOXTROT INDIA
-1.5051 CAPITALIZE FOXTROT OR
-0.6021 CAPITALIZE FOXTROT ROMEO
-0.3010 CAPITALIZE HOTEL ALPHA
-0.6021 CAPITALIZE INDIA NOVEMBER
-0.6021 CAPITALIZE INDIA TANGO
-1.3424 CAPITALIZE LIMA </s>
-0.8653 CAPITALIZE LIMA ECHO
-1.3424 CAPITALIZE LIMA INDIA
-0.5643 CAPITALIZE LIMA OSCAR
-0.6021 CAPITALIZE MIKE ALPHA
-0.7270 CAPITALIZE MIKE ECHO
-1.2041 CAPITALIZE MIKE PAPA
-0.3010 CAPITALIZE NOVEMBER OSCAR
-1.0000 CAPITALIZE OSCAR DELETE
-1.0000 CAPITALIZE OSCAR ESCAPE
-1.0000 CAPITALIZE OSCAR IF
-0.6990 CAPITALIZE OSCAR INSERT
-0.3010 CAPITALIZE SAVE QUIT
-0.3010 CAPITALIZE SEEK XRAY
-0.7404 CAPITALIZE SIERRA CHARLIE
-1.3424 CAPITALIZE SIERRA HOTEL
-1.3424 CAPITALIZE SIERRA OSCAR
-1.3424 CAPITALIZE SIERRA PAPA
-0.7404 CAPITALIZE SIERRA TANGO
-0.3010 CAPITALIZE TANGO OSCAR
-0.3010 CARROT APPEND GOTO
-0.3010 CARROT DELETE WORD
-0.3010 CARROT EIGHT NINE
-1.0792 CARROT INSERT JULIET
-0.7782 CARROT INSERT LISTEN
-1.0792 CARROT INSERT NOVEMBER
-1.0792 CARROT INSERT PAPA
-1.0792 CARROT INSERT ZULU
-0.3010 CARROT PASTE </s>
-0.7782 CHARLIE ALPHA NOVEMBER
-0.7782 CHARLIE ALPHA TANGO
-0.7782 CHARLIE ALPHA VICTOR
-0.3010 CHARLIE COLON ENTER
-0.3010 CHARLIE COMMA SPACE
-0.7782 CHARLIE DOT FOXTROT
-0.7782 CHARLIE DOT KILO
-0.7782 CHARLIE DOT SOUTH
-1.0000 CHARLIE ECHO </s>
-1.3010 CHARLIE ECHO INDIA
-1.0000 CHARLIE ECHO QUOTE
-1.3010 CHARLIE ECHO SIERRA
-0.8239 CHARLIE ECHO SPACE
-1.3010 CHARLIE ECHO XRAY
-0.6021 CHARLIE ENTER </s>
-0.6021 CHARLIE ENTER KEES
-0.4771 CHARLIE ESCAPE </s>
-0.7782 CHARLIE ESCAPE KEES
-0.9542 CHARLIE HOTEL </s>
-0.6532 CHARLIE HOTEL ALPHA
-0.9542 CHARLIE HOTEL ASSIGN
-1.2553 CHARLIE HOTEL SOUTH
-0.7782 CHARLIE KILO PAREN
-0.7782 CHARLIE KILO SIERRA
-0.7782 CHARLIE KILO TICK
-0.6021 CHARLIE LIMA ALPHA
-0.6021 CHARLIE LIMA SHOOP
-0.6021 CHARLIE MIKE EQUALS
-0.6021 CHARLIE MIKE NERAP
-1.5563 CHARLIE OSCAR </s>
-0.6532 CHARLIE OSCAR MIKE
-1.5563 CHARLIE OSCAR NOVEMBER
-0.6532 CHARLIE OSCAR UNIFORM
-1.4150 CHARLIE ROMEO </s>
-1.4150 CHARLIE ROMEO ECHO
-0.3736 CHARLIE ROMEO INDIA
-0.3010 CHARLIE SHOOP CAPITALIZE
-0.3010 CHARLIE SLASH VICTOR
-0.3010 CHARLIE SPACE TFIHS
-0.3010 CHARLIE TANGO ECHO
-0.3010 CHARLIE UNIFORM SHOOP
-0.3010 CHARLIE YLRUC COMMA
-0.3010 COLON DELTA ENTER
-1.4037 COLON ENTER </s>
-1.8808 COLON ENTER ALPHA
-1.8808 COLON ENTER BRAVO
-1.4037 COLON ENTER CHARLIE
-1.5798 COLON ENTER ENTER
-1.5798 COLON ENTER FOXTROT
-1.5798 COLON ENTER HOTEL
-1.2788 COLON ENTER IF
-1.5798 COLON ENTER ITERATE
-1.2788 COLON ENTER JULIET
-1.8808 COLON ENTER LIMA
-1.8808 COLON ENTER MIKE
-1.8808 COLON ENTER QUOTE
-1.8808 COLON ENTER RETURN
-1.8808 COLON ENTER SHOOP
-1.4037 COLON ENTER SIERRA
-1.8808 COLON ENTER SOUTH
-1.8808 COLON ENTER WHILE
-1.8808 COLON ENTER WHISKEY
-1.8808 COLON ENTER XRAY
-1.8808 COLON ENTER YANKEE
-1.8808 COLON ENTER ZULU
-0.7782 COLON ESCAPE </s>
-0.4771 COLON ESCAPE DOWN
-0.3010 COLON INDIA NOVEMBER
-0.3010 COLON MATCH DELTA
-0.3010 COLON QUEBEC BANG
-0.3010 COLON SIERRA SLASH
-1.1461 COLON SPACE ALPHA
-0.8451 COLON SPACE CHARLIE
-1.1461 COLON SPACE JULIET
-1.1461 COLON SPACE QUEBEC
-1.1461 COLON SPACE VICTOR
-1.1461 COLON SPACE WHISKEY
-0.7782 COLON WHISKEY </s>
-0.7782 COLON WHISKEY QUEBEC
-0.7782 COLON WHISKEY SHOOP
-0.7782 COMMA ENTER JULIET
-0.7782 COMMA ENTER QUEBEC
-0.7782 COMMA ENTER ZULU
-1.8573 COMMA SPACE ALPHA
-1.8573 COMMA SPACE BRAVO
-1.2553 COMMA SPACE CHARLIE
-1.8573 COMMA SPACE CURLY
-1.5563 COMMA SPACE ESCAPE
-1.8573 COMMA SPACE FIVE
-1.8573 COMMA SPACE FOUR
-1.8573 COMMA SPACE FOXTROT
-1.8573 COMMA SPACE INDIA
-1.8573 COMMA SPACE JULIET
-1.3802 COMMA SPACE LIMA
-1.8573 COMMA SPACE LISTEN
-1.5563 COMMA SPACE ONE
-1.1584 COMMA SPACE QUOTE
-1.8573 COMMA SPACE SHOOP
-1.5563 COMMA SPACE SIERRA
-1.5563 COMMA SPACE TANGO
-1.8573 COMMA SPACE THREE
-1.3802 COMMA SPACE TICK
-1.8573 COMMA SPACE TRUE
-1.8573 COMMA SPACE TWO
-0.3010 COMPLETE COLON ENTER
-0.6021 COMPLETE ESCAPE </s>
-0.6021 COMPLETE ESCAPE FILEBEGIN
-0.3010 COMPLETE NERAP COLON
-0.3010 COMPLETE NEXT NEXT
-0.7782 COMPLETE SPACE AND
-0.7782 COMPLETE SPACE QUESTION
-0.7782 COMPLETE SPACE ZULU
-0.9031 COPY ESCAPE FILEBEGIN
-0.9031 COPY ESCAPE FIVE
-0.9031 COPY ESCAPE PAGE
-0.9031 COPY ESCAPE THREE
-0.3010 CURLY ENTER TAB
-0.3010 CURLY LISTEN RETURN
-0.3010 CURLY ONE COMMA
-0.3010 CURLY QUOTE BRAVO
-0.3010 CURLY TANGO ALPHA
-0.3010 CURLY TICK HOTEL
-0.3010 CUT PAGE FORWARD
-0.3010 CUT UNDO REDO
-0.3010 CUT UP UP
-0.3010 DEFINE KILO INDIA
-0.3010 DEFINE LISTEN NETSIL
-0.3010 DEFINE SCORE SCORE
-0.6021 DEFINE SPACE GOLF
-0.9031 DEFINE SPACE TANGO
-0.9031 DEFINE SPACE WHISKEY
-0.3010 DEFINE VICTOR ECHO
-0.9031 DELETE BACK DELETE
-0.6021 DELETE BACK INSERT
-0.9031 DELETE BACK XRAY
-0.3010 DELETE BIGBACK INSERT
-0.3010 DELETE CARROT INSERT
-1.1139 DELETE DELETE DELETE
-1.1139 DELETE DELETE DOWN
-1.4150 DELETE DELETE INSERT
-0.8129 DELETE DELETE NEWLINE
-0.9379 DELETE DELETE SAVE
-1.4150 DELETE DELETE UNDO
-0.5229 DELETE DOLLA APPEND
-0.6990 DELETE DOLLA INSERT
-0.7782 DELETE DOWN DELETE
-0.7782 DELETE DOWN DOWN
-0.7782 DELETE DOWN INSERT
-0.3010 DELETE END SAVE
-0.3010 DELETE FILEEND NEWLINE
-0.6021 DELETE INSERT </s>
-0.6021 DELETE INSERT TICK
-0.3010 DELETE MATCH APPEND
-1.0000 DELETE NEWLINE ESCAPE
-0.6990 DELETE NEWLINE INDIA
-1.0000 DELETE NEWLINE MIKE
-1.0000 DELETE NEWLINE NOVEMBER
-0.3010 DELETE SAVE ENTER
-0.3010 DELETE UNDO UNDO
-0.3010 DELETE WHISKEY APPEND
-1.3010 DELETE WORD </s>
-1.3010 DELETE WORD AGAIN
-1.3010 DELETE WORD APPEND
-1.3010 DELETE WORD DELETE
-0.5229 DELETE WORD INSERT
-0.3010 DELETE ZERO INSERT
-0.3010 DELTA ALPHA SPACE
-0.3010 DELTA ASSIGN QUOTE
-0.6990 DELTA CAPITALIZE DELTA
-0.6021 DELTA CAPITALIZE MIKE
-1.3010 DELTA CAPITALIZE SIERRA
-0.3010 DELTA COLON MATCH
-0.3010 DELTA DELETE WORD
-0.3010 DELTA DELTA SLASH
-0.6021 DELTA DOT QUOTE
-0.6021 DELTA DOT SPACE
-1.3617 DELTA ECHO </s>
-1.6628 DELTA ECHO DELTA
-1.6628 DELTA ECHO FOXTROT
-1.6628 DELTA ECHO PAREN
-1.6628 DELTA ECHO TANGO
-1.1856 DELTA ECHO VICTOR
-0.5166 DELTA ECHO XRAY
-0.6021 DELTA ENTER SIX
-0.6021 DELTA ENTER TWO
-0.3010 DELTA INDIA </s>
-0.6021 DELTA LIMA ECHO
-0.6021 DELTA LIMA INDIA
-0.6021 DELTA OSCAR GOLF
-0.9031 DELTA OSCAR MIKE
-0.9031 DELTA OSCAR NOVEMBER
-0.3010 DELTA PAREN NERAP
-0.3010 DELTA QUOTE SPACE
-0.3010 DELTA ROMEO ALPHA
-0.6021 DELTA SHOOP NERAP
-0.6021 DELTA SHOOP SHOOP
-0.4771 DELTA SIERRA PAREN
-0.7782 DELTA SIERRA SPACE
-0.3010 DELTA SLASH BRAVO
-1.0792 DELTA SPACE ALPHA
-1.0792 DELTA SPACE CHARLIE
-1.0792 DELTA SPACE SPACE
-1.0792 DELTA SPACE TANGO
-0.7782 DELTA SPACE WHISKEY
-0.6021 DELTA UNIFORM INDIA
-0.6021 DELTA UNIFORM PAPA
-1.3010 DOLLA APPEND </s>
-1.3010 DOLLA APPEND COLON
-1.3010 DOLLA APPEND CURLY
-1.0000 DOLLA APPEND NERAP
-1.3010 DOLLA APPEND SHOOP
-0.8239 DOLLA APPEND SPACE
-1.3010 DOLLA APPEND TRUE
-0.4260 DOLLA BACK BACK
-0.9031 DOLLA BACK COPY
-0.6021 DOLLA BIGBACK BIGBACK
-0.6021 DOLLA BIGBACK VISUALMODE
-0.3010 DOLLA COLON SIERRA
-0.4771 DOLLA DELETE BACK
-0.7782 DOLLA DELETE INSERT
-0.3010 DOLLA DOLLA APPEND
-1.0000 DOLLA INSERT </s>
-1.0000 DOLLA INSERT BRAVO
-1.0000 DOLLA INSERT COMMA
-1.0000 DOLLA INSERT IF
-1.0000 DOLLA INSERT SPACE
-0.3010 DOLLA KEES GOLF
-0.3010 DOLLA LEFT LEFT
-0.6021 DOT ALPHA PAPA
-0.6021 DOT ALPHA ROMEO
-0.6021 DOT CHARLIE ECHO
-0.6021 DOT CHARLIE HOTEL
-0.3010 DOT COMPLETE SPACE
-0.3010 DOT FOUR SHOOP
-0.6021 DOT FOXTROT LIMA
-0.9031 DOT FOXTROT OSCAR
-0.9031 DOT FOXTROT UNIFORM
-0.3010 DOT GOLF ECHO
-0.3010 DOT JULIET OSCAR
-0.6021 DOT KILO </s>
-0.6021 DOT KILO SOUTH
-0.3010 DOT MIKE ALPHA
-0.3010 DOT NOVEMBER OSCAR
-0.3010 DOT QUOTE QUOTE
-0.3010 DOT RIGHT DELETE
-0.4771 DOT ROMEO ECHO
-0.7782 DOT ROMEO OSCAR
-0.6021 DOT SHOOP SHOOP
-0.6021 DOT SHOOP ZERO
-0.7782 DOT SIERRA ECHO
-0.7782 DOT SIERRA ENTER
-0.7782 DOT SIERRA TANGO
-0.3010 DOT SOUTH SOUTH
-0.4260 DOT SPACE CAPITALIZE
-0.9031 DOT SPACE QUOTE
-0.3802 DOT TANGO XRAY
-1.0792 DOT TANGO YANKEE
-0.3010 DOT VICTOR ECHO
-1.0000 DOT WHISKEY COMPLETE
-0.3979 DOT WHISKEY ROMEO
-0.3010 DOT XRAY SPACE
-0.3010 DOWN APPEND ENTER
-0.3010 DOWN BIGWORD MATCH
-0.6021 DOWN CAPITALIZE ALPHA
-0.6021 DOWN CAPITALIZE OSCAR
-0.4771 DOWN CARROT INSERT
-0.7782 DOWN CARROT PASTE
-1.0000 DOWN COLON DELTA
-0.3979 DOWN COLON SIERRA
-0.3010 DOWN CUT PAGE
-0.3010 DOWN DELETE DELETE
-0.7782 DOWN DOLLA APPEND
-0.7782 DOWN DOLLA INSERT
-0.7782 DOWN DOLLA KEES
-1.5798 DOWN DOWN COLON
-1.2788 DOWN DOWN DELETE
-1.5798 DOWN DOWN DOLLA
-0.8808 DOWN DOWN DOWN
-1.5798 DOWN DOWN FORWARD
-1.1027 DOWN DOWN NEWLINE
-1.5798 DOWN DOWN SLASH
-1.2788 DOWN DOWN UP
-1.5798 DOWN DOWN VISUALLINE
-1.2788 DOWN DOWN WORD
-0.3010 DOWN EIGHT SEEK
-0.3010 DOWN FILEEND APPEND
-0.3010 DOWN FORWARD UP
-0.3010 DOWN GREATER DOWN
-0.3010 DOWN INSERT LISTEN
-1.2553 DOWN NEWLINE ESCAPE
-1.2553 DOWN NEWLINE INDIA
-1.2553 DOWN NEWLINE ITERATE
-1.2553 DOWN NEWLINE JULIET
-0.7782 DOWN NEWLINE SHOOP
-1.2553 DOWN NEWLINE WHILE
-1.2553 DOWN NEWLINE WHISKEY
-0.7782 DOWN RIGHT </s>
-0.7782 DOWN RIGHT LEFT
-0.7782 DOWN RIGHT SEEK
-0.3010 DOWN SEEK KILO
-0.6021 DOWN SHIFT ESCAPE
-0.6021 DOWN SHIFT SHIFT
-0.3010 DOWN SLASH BRAVO
-0.3010 DOWN TAB INSERT
-0.3010 DOWN TFIHS ESCAPE
-0.3010 DOWN THREE DOWN
-0.3010 DOWN TWO SEEK
-0.9031 DOWN UP LEFT
-0.9031 DOWN UP RIGHT
-0.9031 DOWN UP UP
-0.9031 DOWN UP WORD
-0.6021 DOWN VISUALLINE DOWN
-0.6021 DOWN VISUALLINE FOUR
-0.6021 DOWN WORD BIGWORD
-0.6021 DOWN WORD DELETE
-0.3010 EAST NETSIL SAVE
-0.3010 EAST NEXT BACKWARD
-0.3010 EAST NORTH WEST
-0.3010 EAST SPELL TILDE
-0.7782 ECHO ALPHA DELTA
-1.2553 ECHO ALPHA KILO
-0.7782 ECHO ALPHA NOVEMBER
-0.9542 ECHO ALPHA TANGO
-1.0000 ECHO ASSIGN ESCAPE
-0.6990 ECHO ASSIGN FOXTROT
-1.0000 ECHO ASSIGN SIERRA
-1.0000 ECHO ASSIGN TICK
-0.3010 ECHO BRACKET TICK
-0.3010 ECHO BRAVO ROMEO
-0.6690 ECHO CAPITALIZE LIMA
-0.5441 ECHO CAPITALIZE SIERRA
-0.7782 ECHO CHARLIE COLON
-0.7782 ECHO CHARLIE ENTER
-0.7782 ECHO CHARLIE ESCAPE
-0.3010 ECHO COLON ENTER
-0.3010 ECHO COMMA SPACE
-0.7782 ECHO DELTA LIMA
-0.4771 ECHO DELTA SPACE
-0.6021 ECHO ECHO DELTA
-0.6021 ECHO ECHO TANGO
-0.6021 ECHO ENTER NEWLINE
-0.6021 ECHO ENTER PAPA
-0.9031 ECHO ESCAPE CAPITALIZE
-0.9031 ECHO ESCAPE DOWN
-0.9031 ECHO ESCAPE SAVE
-0.9031 ECHO ESCAPE UP
-1.0000 ECHO FOXTROT FOXTROT
-0.3979 ECHO FOXTROT INDIA
-0.7782 ECHO INDIA LIMA
-0.4771 ECHO INDIA ROMEO
-0.3010 ECHO KILO PAREN
-1.0792 ECHO LIMA DELTA
-1.0792 ECHO LIMA FOXTROT
-0.6021 ECHO LIMA INDIA
-1.0792 ECHO LIMA SPACE
-0.4771 ECHO MIKE OSCAR
-0.7782 ECHO MIKE SPACE
-0.6532 ECHO NERAP COLON
-0.9542 ECHO NERAP ENTER
-1.2553 ECHO NERAP ESCAPE
-0.9542 ECHO NERAP SPACE
-1.8325 ECHO NOVEMBER </s>
-1.2304 ECHO NOVEMBER ALPHA
-1.0544 ECHO NOVEMBER CAPITALIZE
-1.3554 ECHO NOVEMBER CHARLIE
-1.8325 ECHO NOVEMBER DELTA
-1.5315 ECHO NOVEMBER GOLF
-1.8325 ECHO NOVEMBER INDIA
-1.8325 ECHO NOVEMBER OSCAR
-0.7533 ECHO NOVEMBER PAREN
-1.5315 ECHO NOVEMBER SHOOP
-1.8325 ECHO NOVEMBER TICK
-0.6021 ECHO PAPA ECHO
-0.6021 ECHO PAPA LIMA
-1.3802 ECHO PAREN </s>
-1.3802 ECHO PAREN FOXTROT
-0.9031 ECHO PAREN LIMA
-1.0792 ECHO PAREN NERAP
-1.0792 ECHO PAREN PAPA
-1.3802 ECHO PAREN SEVEN
-1.3802 ECHO PAREN SHOOP
-1.3802 ECHO PAREN SIERRA
-0.3010 ECHO QUEBEC UNIFORM
-0.6021 ECHO QUOTE COMMA
-0.6021 ECHO QUOTE TEKCARB
-0.8451 ECHO ROMEO INDIA
-1.1461 ECHO ROMEO MIKE
-1.1461 ECHO ROMEO PAREN
-1.1461 ECHO ROMEO SLASH
-0.8451 ECHO ROMEO SPACE
-0.3010 ECHO SHOOP INDIA
-1.5563 ECHO SIERRA </s>
-1.2553 ECHO SIERRA ASSIGN
-1.5563 ECHO SIERRA COLON
-1.2553 ECHO SIERRA DOT
-1.5563 ECHO SIERRA SHOOP
-1.5563 ECHO SIERRA SIERRA
-0.7782 ECHO SIERRA SPACE
-0.9542 ECHO SIERRA TANGO
-1.3802 ECHO SPACE AND
-1.0792 ECHO SPACE CHARLIE
-1.0792 ECHO SPACE INDIA
-0.9031 ECHO SPACE SIERRA
-1.0792 ECHO SPACE TANGO
-1.0792 ECHO SPACE VICTOR
-1.1139 ECHO TANGO CAPITALIZE
-1.1139 ECHO TANGO ECHO
-1.4150 ECHO TANGO EQUALS
-1.4150 ECHO TANGO LIMA
-1.4150 ECHO TANGO OSCAR
-1.4150 ECHO TANGO SCORE
-1.4150 ECHO TANGO SHOOP
-0.9379 ECHO TANGO SPACE
-1.4150 ECHO TANGO WHISKEY
-0.9031 ECHO VICTOR COLON
-0.9031 ECHO VICTOR DELTA
-0.9031 ECHO VICTOR EQUALS
-0.9031 ECHO VICTOR SPACE
-1.5315 ECHO XRAY </s>
-1.0544 ECHO XRAY ASSIGN
-1.5315 ECHO XRAY COLON
-1.5315 ECHO XRAY COMMA
-1.2304 ECHO XRAY PLUS
-1.2304 ECHO XRAY SHOOP
-0.7533 ECHO XRAY SPACE
-1.5315 ECHO XRAY TEKCARB
-0.3010 ECHO ZULU UNIFORM
-0.3010 EGAP DOWN RIGHT
-0.3010 EGAP EGAP FIVE
-0.3010 EGAP FIVE UP
-0.4771 EGAP FORWARD BACKWARD
-0.7782 EGAP FORWARD DOWN
-0.3010 EGAP SAVE </s>
-0.6021 EGAP UP RIGHT
-0.6021 EGAP UP UP
-0.3010 EIGHT ENTER SHOOP
-1.0792 EIGHT GOTO DELETE
-0.6021 EIGHT GOTO SPACE
-1.0792 EIGHT GOTO THREE
-1.0792 EIGHT GOTO WORD
-0.3010 EIGHT NEWLINE PAPA
-0.3010 EIGHT NINE GOTO
-0.6021 EIGHT SEEK PAREN
-0.6021 EIGHT SEEK VICTOR
-0.3010 EIGHT SHOOP FOUR
-0.3010 EIGHT SPACE TILDE
-0.3010 ELIF ENTER ELSE
-0.7782 ELIF PAREN QUEBEC
-0.7782 ELIF PAREN XRAY
-0.7782 ELIF PAREN YANKEE
-0.6021 ELSE COLON </s>
-0.6021 ELSE COLON ENTER
-0.3010 ELSE ESCAPE UP
-0.3010 ELSE JULIET ASSIGN
-0.7782 ELSE SPACE MIKE
-0.4771 ELSE SPACE QUOTE
-0.6021 END APPEND </s>
-0.6021 END APPEND QUOTE
-0.3010 END BIGWORD BIGBACK
-0.3010 END CAPITALIZE ESCAPE
-0.3010 END COPY ESCAPE
-0.3010 END HUG KEES
-0.3010 END INSERT KILO
-0.3010 END NOVEMBER TANGO
-0.3010 END PASTE </s>
-0.3010 END SAVE ENTER
-0.3010 ENTER ALPHA LIMA
-0.6021 ENTER BRAVO OSCAR
-0.6021 ENTER BRAVO ROMEO
-0.7782 ENTER CHARLIE HOTEL
-0.4771 ENTER CHARLIE OSCAR
-0.3010 ENTER COLON WHISKEY
-0.7782 ENTER DEFINE KILO
-0.7782 ENTER DEFINE SPACE
-0.7782 ENTER DEFINE VICTOR
-0.3010 ENTER DELETE DELETE
-0.3010 ENTER DELTA INDIA
-0.6021 ENTER DOWN DOWN
-0.6021 ENTER DOWN RIGHT
-0.3010 ENTER ELIF ENTER
-0.3010 ENTER ELSE ESCAPE
-1.1461 ENTER ENTER DEFINE
-1.1461 ENTER ENTER ENTER
-1.1461 ENTER ENTER FOXTROT
-1.1461 ENTER ENTER NORTH
-1.1461 ENTER ENTER SCORE
-0.8451 ENTER ENTER SHOOP
-1.0792 ENTER ESCAPE </s>
-1.0792 ENTER ESCAPE DOLLA
-1.0792 ENTER ESCAPE PAGE
-1.0792 ENTER ESCAPE SAVE
-0.7782 ENTER ESCAPE UP
-0.9031 ENTER FILEEND QUIT
-0.4260 ENTER FILEEND SPACE
-0.3010 ENTER FORWARD THREE
-0.6990 ENTER FOXTROT </s>
-0.6990 ENTER FOXTROT DOT
-1.0000 ENTER FOXTROT UNIFORM
-0.3010 ENTER GOLF ECHO
-0.6021 ENTER HOTEL ASSIGN
-0.6021 ENTER HOTEL SPACE
-0.9031 ENTER IF ESCAPE
-0.9031 ENTER IF PAREN
-0.6021 ENTER IF SPACE
-0.3010 ENTER INSERT INDIA
-0.4260 ENTER ITERATE SPACE
-0.9031 ENTER ITERATE XRAY
-0.5229 ENTER JULIET ASSIGN
-1.0000 ENTER JULIET COMMA
-1.0000 ENTER JULIET INDIA
-0.6021 ENTER KEES DELTA
-0.6021 ENTER KEES HSALS
-0.6021 ENTER LIMA ASSIGN
-0.9031 ENTER LIMA INDIA
-0.9031 ENTER LIMA OSCAR
-0.3010 ENTER LISTEN SNORE
-0.3010 ENTER MIKE ALPHA
-0.3010 ENTER NEWLINE TAB
-0.6021 ENTER NEXT APPEND
-0.6021 ENTER NEXT END
-0.3010 ENTER NINE </s>
-0.3010 ENTER NORTH TAB
-0.6021 ENTER ONE THREE
-0.6021 ENTER ONE TWO
-0.3010 ENTER PAGE EGAP
-0.3010 ENTER PAPA ROMEO
-0.7782 ENTER PAREN LIMA
-0.7782 ENTER PAREN NERAP
-0.7782 ENTER PAREN ONE
-0.6021 ENTER QUEBEC ASSIGN
-0.6021 ENTER QUEBEC COMMA
-1.2041 ENTER QUIT </s>
-0.3590 ENTER QUIT ENTER
-0.3010 ENTER QUOTE QUOTE
-0.3010 ENTER REPLACE HOTEL
-0.6021 ENTER RETURN BRAVO
-0.6021 ENTER RETURN SPACE
-0.6021 ENTER RIGHT ONE
-0.6021 ENTER RIGHT RIGHT
-0.3010 ENTER SCORE SCORE
-0.3010 ENTER SEVEN ONE
-1.2553 ENTER SHOOP </s>
-1.2553 ENTER SHOOP ALPHA
-0.9542 ENTER SHOOP ELIF
-0.9542 ENTER SHOOP ELSE
-1.2553 ENTER SHOOP ESCAPE
-0.9542 ENTER SHOOP SHOOP
-0.6990 ENTER SIERRA </s>
-1.0000 ENTER SIERRA CHARLIE
-1.0000 ENTER SIERRA HOTEL
-1.0000 ENTER SIERRA SPACE
-0.3010 ENTER SIX UP
-0.3010 ENTER SNORE </s>
-0.7782 ENTER SOUTH EAST
-0.4771 ENTER SOUTH SOUTH
-0.6021 ENTER TAB FOXTROT
-0.6021 ENTER TAB XRAY
-0.3010 ENTER THREE BIGWORD
-0.4771 ENTER TWO EIGHT
-0.7782 ENTER TWO NINE
-0.3010 ENTER UP DOLLA
-0.3010 ENTER VICTOR INDIA
-0.3010 ENTER VISUALBLOCK ESCAPE
-0.3010 ENTER WHILE SPACE
-0.3010 ENTER WHISKEY INDIA
-0.6021 ENTER XRAY LEFT
-0.6021 ENTER XRAY SPACE
-0.3010 ENTER YANKEE SPACE
-0.6021 ENTER ZULU SPACE
-0.6021 ENTER ZULU YLRUC
-0.3010 EQUALS CAPITALIZE NOVEMBER
-0.3010 EQUALS EQUALS SPACE
-0.3010 EQUALS ONE NERAP
-0.3010 EQUALS PAGE BACKWARD
-0.3010 EQUALS RIGHT XRAY
-0.3010 EQUALS SHOOP SHOOP
-0.3010 EQUALS SIERRA CHARLIE
-1.5798 EQUALS SPACE </s>
-1.2788 EQUALS SPACE BRACKET
-1.5798 EQUALS SPACE CHARLIE
-1.5798 EQUALS SPACE CURLY
-1.5798 EQUALS SPACE FALSE
-1.5798 EQUALS SPACE FOUR
-1.5798 EQUALS SPACE LIMA
-1.5798 EQUALS SPACE LISTEN
-1.2788 EQUALS SPACE MIKE
-1.1027 EQUALS SPACE ONE
-1.5798 EQUALS SPACE QUEBEC
-1.5798 EQUALS SPACE QUOTE
-1.5798 EQUALS SPACE SPACE
-1.5798 EQUALS SPACE ZERO
-1.5798 EQUALS SPACE ZULU
-0.3010 EQUALS THREE COMMA
-0.3010 EQUALS TICK </s>
-0.3010 EQUALS TWO ZERO
-0.7782 ESCAPE BACK BACK
-0.7782 ESCAPE BACK DOWN
-0.7782 ESCAPE BACK INSERT
-0.6021 ESCAPE BACKWARD BACKWARD
-0.6021 ESCAPE BACKWARD SNORE
-0.3010 ESCAPE BIGBACK INSERT
-0.3010 ESCAPE CAPITALIZE OSCAR
-0.6021 ESCAPE CARROT EIGHT
-0.6021 ESCAPE CARROT INSERT
-0.3010 ESCAPE COLON WHISKEY
-0.3010 ESCAPE DELETE DELETE
-0.4771 ESCAPE DOLLA APPEND
-0.7782 ESCAPE DOLLA DOLLA
-1.3010 ESCAPE DOWN </s>
-1.0000 ESCAPE DOWN DELETE
-0.8239 ESCAPE DOWN DOWN
-1.0000 ESCAPE DOWN NEWLINE
-1.3010 ESCAPE DOWN RIGHT
-1.3010 ESCAPE DOWN VISUALLINE
-0.3010 ESCAPE END APPEND
-0.4771 ESCAPE FILEBEGIN SAVE
-0.7782 ESCAPE FILEBEGIN SNORE
-0.7782 ESCAPE FILEEND </s>
-0.4771 ESCAPE FILEEND NEWLINE
-0.7782 ESCAPE FIVE BACK
-0.7782 ESCAPE FIVE DOWN
-0.7782 ESCAPE FIVE UP
-0.3010 ESCAPE FOUR DOWN
-0.3010 ESCAPE KEES XRAY
-0.3010 ESCAPE LEFT RIGHT
-0.3010 ESCAPE MATCH APPEND
-0.6021 ESCAPE MIDDLE </s>
-0.6021 ESCAPE MIDDLE VISUALMODE
-0.3010 ESCAPE NEWLINE SHOOP
-0.3010 ESCAPE NEXT </s>
-0.9031 ESCAPE ONE SIX
-0.9031 ESCAPE ONE TWO
-0.6021 ESCAPE ONE ZERO
-0.6021 ESCAPE PAGE SEVEN
-0.6021 ESCAPE PAGE SLASH
-0.3010 ESCAPE QUIT </s>
-0.4771 ESCAPE RIGHT APPEND
-0.7782 ESCAPE RIGHT MATCH
-1.6435 ESCAPE SAVE </s>
-0.4130 ESCAPE SAVE ENTER
-1.3424 ESCAPE SAVE QUIT
-1.3424 ESCAPE SAVE SNORE
-0.6021 ESCAPE SEVEN UP
-0.6021 ESCAPE SEVEN ZERO
-0.3010 ESCAPE SLASH UNIFORM
-0.3010 ESCAPE SNORE </s>
-0.3010 ESCAPE THREE UP
-0.7782 ESCAPE UNDO LEFT
-0.7782 ESCAPE UNDO NEWLINE
-0.7782 ESCAPE UNDO SEVEN
-1.5563 ESCAPE UP BIGBACK
-1.5563 ESCAPE UP DELETE
-1.0792 ESCAPE UP DOLLA
-1.5563 ESCAPE UP END
-1.5563 ESCAPE UP LEFT
-1.5563 ESCAPE UP NEWLINE
-1.5563 ESCAPE UP PREVIOUS
-0.7112 ESCAPE UP UP
-1.2553 ESCAPE UP WHISKEY
-0.3010 ESCAPE WHISKEY BIGWORD
-0.3010 ESCAPE XRAY XRAY
-0.3010 FALSE COMMA SPACE
-0.6021 FALSE ENTER BRAVO
-0.6021 FALSE ENTER ITERATE
-0.6021 FALSE ESCAPE </s>
-0.6021 FALSE ESCAPE SAVE
-0.3010 FILEBEGIN INSERT PAPA
-0.6021 FILEBEGIN SAVE QUIT
-0.6021 FILEBEGIN SAVE SLASH
-0.3010 FILEBEGIN SNORE </s>
-0.3010 FILEBEGIN WORD WORD
-0.3010 FILEEND APPEND KILO
-0.3010 FILEEND CUT UNDO
-0.3010 FILEEND DOLLA INSERT
-0.6021 FILEEND EGAP DOWN
-0.6021 FILEEND EGAP FIVE
-0.3010 FILEEND FORWARD ZULU
-0.3010 FILEEND HIGH DOWN
-0.3010 FILEEND INSERT DEFINE
-1.1461 FILEEND NEWLINE CHARLIE
-1.1461 FILEEND NEWLINE ENTER
-1.1461 FILEEND NEWLINE SHOOP
-1.1461 FILEEND NEWLINE TAB
-0.6690 FILEEND NEWLINE WHISKEY
-0.3010 FILEEND QUIT ENTER
-0.7782 FILEEND SPACE FOUR
-0.4771 FILEEND SPACE NEWLINE
-0.3010 FILEEND UP CARROT
-0.3010 FIVE BACK TWO
-0.6021 FIVE DOWN NEWLINE
-0.6021 FIVE DOWN SHIFT
-0.6021 FIVE GOTO SPACE
-0.6021 FIVE GOTO VISUALBLOCK
-0.3010 FIVE NINE TEKCARB
-0.3010 FIVE RIGHT RIGHT
-0.3010 FIVE SEEK OSCAR
-0.3010 FIVE SPACE ELSE
-0.7782 FIVE UP APPEND
-0.7782 FIVE UP DELETE
-0.7782 FIVE UP ELIF
-0.3010 FIVE YLRUC </s>
-0.3010 FIVE ZULU EQUALS
-0.6021 FORWARD BACKWARD QUIT
-0.6021 FORWARD BACKWARD UP
-0.3010 FORWARD DOWN EIGHT
-1.0000 FORWARD FORWARD FORWARD
-1.0000 FORWARD FORWARD MIDDLE
-1.0000 FORWARD FORWARD SEVEN
-1.0000 FORWARD FORWARD SLASH
-1.0000 FORWARD FORWARD UP
-0.3010 FORWARD MIDDLE DOWN
-0.3010 FORWARD NINE ONE
-0.3010 FORWARD ONE THREE
-0.3010 FORWARD PAGE DOWN
-0.3010 FORWARD SEVEN TWO
-0.3010 FORWARD SIX DOWN
-0.3010 FORWARD SLASH JULIET
-0.3010 FORWARD THREE UP
-0.3010 FORWARD TWO UP
-0.3010 FORWARD UP UP
-0.3010 FORWARD ZULU ZULU
-0.3010 FOUR COMMA SPACE
-1.0000 FOUR DOWN CAPITALIZE
-0.5229 FOUR DOWN COLON
-1.0000 FOUR DOWN SHIFT
-0.3010 FOUR EIGHT SPACE
-0.3010 FOUR FIVE ZULU
-0.3010 FOUR SEVEN ESCAPE
-0.3010 FOUR SHOOP FIVE
-0.3010 FOUR UP WHISKEY
-0.3010 FOUR WORD DELETE
-0.3010 FOUR ZERO ESCAPE
-0.3010 FOXTROT ALPHA SHOOP
-1.0000 FOXTROT COLON </s>
-0.5229 FOXTROT COLON ENTER
-1.0000 FOXTROT COLON ESCAPE
-0.3010 FOXTROT COMMA ENTER
-0.6690 FOXTROT DOT ROMEO
-1.1461 FOXTROT DOT SIERRA
-0.6690 FOXTROT DOT WHISKEY
-0.3010 FOXTROT ECHO SHOOP
-0.6021 FOXTROT ESCAPE FILEEND
-0.6021 FOXTROT ESCAPE SAVE
-0.6021 FOXTROT FOXTROT COLON
-0.6021 FOXTROT FOXTROT ESCAPE
-1.6232 FOXTROT INDIA </s>
-0.4771 FOXTROT INDIA LIMA
-1.3222 FOXTROT INDIA NOVEMBER
-1.6232 FOXTROT INDIA SHOOP
-1.1461 FOXTROT INDIA XRAY
-0.7782 FOXTROT LIMA ALPHA
-0.4771 FOXTROT LIMA OSCAR
-0.6021 FOXTROT NERAP </s>
-0.6021 FOXTROT NERAP ENTER
-0.3010 FOXTROT OR SPACE
-0.6021 FOXTROT OSCAR COMPLETE
-0.6021 FOXTROT OSCAR OSCAR
-0.3010 FOXTROT REPLACE QUEBEC
-1.3010 FOXTROT ROMEO </s>
-0.3468 FOXTROT ROMEO OSCAR
-0.3010 FOXTROT SPACE LIMA
-0.7782 FOXTROT UNIFORM CHARLIE
-0.7782 FOXTROT UNIFORM NOVEMBER
-0.7782 FOXTROT UNIFORM SOUTH
-0.3010 FOXTROT YANKEE ASSIGN
-0.7782 GOLF ASSIGN GOLF
-0.7782 GOLF ASSIGN SHOOP
-0.7782 GOLF ASSIGN TICK
-0.3010 GOLF CAPITALIZE FOXTROT
-0.3010 GOLF COLON ENTER
-0.3010 GOLF COMMA SPACE
-1.4472 GOLF ECHO </s>
-1.4472 GOLF ECHO ECHO
-0.8451 GOLF ECHO NOVEMBER
-0.9700 GOLF ECHO PAREN
-0.7482 GOLF ECHO TANGO
-0.3010 GOLF ENTER </s>
-0.3010 GOLF ESCAPE UNDO
-0.7782 GOLF HOTEL EQUALS
-0.7782 GOLF HOTEL SPACE
-0.7782 GOLF HOTEL TANGO
-0.3010 GOLF INSERT JULIET
-0.4771 GOLF NERAP COLON
-0.7782 GOLF NERAP ENTER
-0.3010 GOLF NOVEMBER QUOTE
-0.3010 GOLF OSCAR TICK
-0.3010 GOLF QUOTE SPACE
-0.3010 GOLF SCORE ZULU
-0.3010 GOLF SHOOP SHOOP
-0.3010 GOLF SLASH TANGO
-0.9031 GOLF SPACE AND
-0.9031 GOLF SPACE FOXTROT
-0.9031 GOLF SPACE INDIA
-0.9031 GOLF SPACE PLUS
-0.3010 GOLF TANGO HOTEL
-0.3010 GOTO CARROT DELETE
-0.3010 GOTO DELETE DELETE
-0.3010 GOTO EIGHT SEEK
-0.3010 GOTO HUG EAST
-0.3010 GOTO QUIT </s>
-0.7782 GOTO SEEK HSALS
-0.7782 GOTO SEEK QUEBEC
-0.7782 GOTO SEEK QUOTE
-0.8451 GOTO SPACE FILEEND
-0.8451 GOTO SPACE FORWARD
-0.8451 GOTO SPACE SIX
-1.1461 GOTO SPACE THREE
-0.3010 GOTO THREE SEEK
-0.3010 GOTO TWO SEEK
-0.3010 GOTO VISUALBLOCK FOUR
-0.3010 GOTO WEST NETSIL
-0.3010 GOTO WORD WORD
-0.3010 GREATER DOWN NEWLINE
-0.6021 HIGH DOWN DOLLA
-0.6021 HIGH DOWN DOWN
-0.3010 HIGH EGAP UP
-0.3010 HIGH VISUALLINE THREE
-1.1461 HOTEL ALPHA NOVEMBER
-0.5441 HOTEL ALPHA ROMEO
-0.8451 HOTEL ALPHA TANGO
-0.3010 HOTEL AND ESCAPE
-0.7782 HOTEL ASSIGN FALSE
-0.7782 HOTEL ASSIGN FOXTROT
-0.7782 HOTEL ASSIGN TRUE
-0.7782 HOTEL DOT CHARLIE
-0.4771 HOTEL DOT FOXTROT
-1.2041 HOTEL ECHO ENTER
-0.9031 HOTEL ECHO INDIA
-1.2041 HOTEL ECHO LIMA
-1.2041 HOTEL ECHO MIKE
-0.9031 HOTEL ECHO SPACE
-1.2041 HOTEL ECHO TANGO
-0.3010 HOTEL EGAP SAVE
-0.3010 HOTEL EQUALS SHOOP
-0.3010 HOTEL ESCAPE </s>
-0.3010 HOTEL INDIA NOVEMBER
-0.3010 HOTEL NERAP COLON
-0.4102 HOTEL OSCAR ROMEO
-1.2553 HOTEL OSCAR SIERRA
-1.2553 HOTEL OSCAR TANGO
-0.3010 HOTEL QUOTE COLON
-0.3010 HOTEL SHOOP ESCAPE
-0.3010 HOTEL SOUTH COMPLETE
-1.4150 HOTEL SPACE </s>
-1.4150 HOTEL SPACE ALPHA
-1.4150 HOTEL SPACE DELTA
-1.4150 HOTEL SPACE EQUALS
-1.4150 HOTEL SPACE ESCAPE
-1.4150 HOTEL SPACE LIMA
-1.4150 HOTEL SPACE MINUS
-0.9379 HOTEL SPACE OSCAR
-0.9379 HOTEL SPACE TANGO
-0.3010 HOTEL TANGO ENTER
-0.3010 HOTEL TICK COLON
-0.3010 HOTEL UNIFORM MIKE
-0.4260 HSALS NOVEMBER QUOTE
-0.9031 HSALS NOVEMBER SPACE
-0.6021 HSALS RIGHT INSERT
-0.6021 HSALS RIGHT REPLACE
-0.3010 HUG EAST NEXT
-0.3010 HUG KEES HSALS
-0.3010 HUG SHOOP EAST
-0.6021 IF BANG LLEPS
-0.6021 IF BANG PAREN
-0.3010 IF ENTER ELIF
-0.3010 IF ESCAPE DELETE
-0.3010 IF LISTEN SNORE
-0.7782 IF PAREN BRAVO
-0.7782 IF PAREN DELTA
-0.7782 IF PAREN QUEBEC
-0.3010 IF SHOOP SHOOP
-1.1461 IF SPACE </s>
-1.1461 IF SPACE CHARLIE
-1.1461 IF SPACE LIMA
-1.1461 IF SPACE MIKE
-1.1461 IF SPACE PAREN
-1.1461 IF SPACE RIGHT
-1.1461 IF SPACE SIERRA
-0.3010 IF TANGO HOTEL
-0.3010 INDA LIMA LIMA
-0.3010 INDIA BRAVO UNIFORM
-0.6021 INDIA CHARLIE ECHO
-0.6021 INDIA CHARLIE KILO
-0.7782 INDIA ECHO LIMA
-0.7782 INDIA ECHO NERAP
-0.7782 INDIA ECHO SIERRA
-0.3010 INDIA FOXTROT YANKEE
-0.7782 INDIA GOLF HOTEL
-0.7782 INDIA GOLF NOVEMBER
-0.7782 INDIA GOLF SCORE
-0.3010 INDIA KILO SIERRA
-1.5315 INDIA LIMA </s>
-0.4523 INDIA LIMA ECHO
-1.5315 INDIA LIMA LIMA
-1.5315 INDIA LIMA OSCAR
-1.5315 INDIA LIMA PAREN
-1.5315 INDIA LIMA TANGO
-0.3010 INDIA MIC PAPA
-1.2041 INDIA MIKE ALPHA
-1.2041 INDIA MIKE CAPITALIZE
-1.2041 INDIA MIKE DOT
-0.9031 INDIA MIKE PAPA
-1.2041 INDIA MIKE SIERRA
-0.9031 INDIA MIKE SPACE
-1.8195 INDIA NOVEMBER </s>
-2.1206 INDIA NOVEMBER CHARLIE
-0.8901 INDIA NOVEMBER DELTA
-0.7588 INDIA NOVEMBER ECHO
-2.1206 INDIA NOVEMBER GOLF
-2.1206 INDIA NOVEMBER INDIA
-2.1206 INDIA NOVEMBER NETSIL
-1.8195 INDIA NOVEMBER PAREN
-2.1206 INDIA NOVEMBER SCORE
-1.1206 INDIA NOVEMBER SPACE
-1.3424 INDIA NOVEMBER TANGO
-2.1206 INDIA NOVEMBER TICK
-1.0000 INDIA OSCAR ENTER
-0.5229 INDIA OSCAR NOVEMBER
-1.0000 INDIA OSCAR SPACE
-1.7160 INDIA PAPA ENTER
-0.3181 INDIA PAPA TANGO
-0.3010 INDIA QUOTE YLRUC
-0.7782 INDIA ROMEO DELTA
-0.4771 INDIA ROMEO SPACE
-0.3010 INDIA SHOOP SPACE
-1.0792 INDIA SIERRA SLASH
-0.7782 INDIA SIERRA SPACE
-0.7782 INDIA SIERRA TANGO
-1.0792 INDIA SIERRA TICK
-0.6021 INDIA SPACE </s>
-0.6021 INDIA SPACE INDIA
-1.5798 INDIA TANGO </s>
-0.8808 INDIA TANGO ECHO
-0.5798 INDIA TANGO HOTEL
-1.5798 INDIA TANGO PAREN
-1.5798 INDIA TANGO SCORE
-1.5798 INDIA TANGO SPACE
-0.7782 INDIA TEKCARB ASSIGN
-0.7782 INDIA TEKCARB COLON
-0.7782 INDIA TEKCARB SPACE
-0.3010 INDIA VICTOR ECHO
-0.7782 INDIA XRAY ASSIGN
-0.7782 INDIA XRAY SHOOP
-0.7782 INDIA XRAY SPACE
-0.3010 INDIA ZULU ECHO
-0.3010 INSERT BRACKET WHISKEY
-0.3010 INSERT BRAVO SPACE
-0.3010 INSERT CHARLIE HOTEL
-0.3010 INSERT COMMA SPACE
-0.3010 INSERT CURLY TANGO
-0.3010 INSERT DEFINE </s>
-0.3010 INSERT DELTA ROMEO
-0.3010 INSERT ENTER DEFINE
-0.6021 INSERT FOXTROT INDIA
-0.6021 INSERT FOXTROT OSCAR
-0.3010 INSERT HOTEL OSCAR
-0.6021 INSERT IF BANG
-0.6021 INSERT IF ENTER
-0.9031 INSERT INDIA MIC
-0.9031 INSERT INDIA MIKE
-0.6021 INSERT INDIA NOVEMBER
-0.3010 INSERT ITERATE TANGO
-1.0792 INSERT JULIET ALPHA
-0.7782 INSERT JULIET ECHO
-1.0792 INSERT JULIET SPACE
-0.7782 INSERT JULIET UNIFORM
-0.3010 INSERT KILO SPACE
-0.6021 INSERT LIMA MIKE
-0.6021 INSERT LIMA OSCAR
-0.7782 INSERT LISTEN QUESTION
-0.7782 INSERT LISTEN TAB
-0.7782 INSERT LISTEN TANGO
-0.3010 INSERT MIKE PAPA
-0.3010 INSERT MINUS SPACE
-0.9031 INSERT NOVEMBER DELTA
-0.9031 INSERT NOVEMBER ECHO
-0.9031 INSERT NOVEMBER ESCAPE
-0.9031 INSERT NOVEMBER SHOOP
-0.3010 INSERT ONE FOUR
-0.3010 INSERT PAPA ROMEO
-0.6021 INSERT PAREN ALPHA
-0.6021 INSERT PAREN ESCAPE
-0.3010 INSERT PREVIOUS SPACE
-0.3010 INSERT QUESTION SPACE
-0.7782 INSERT QUOTE ESCAPE
-0.7782 INSERT QUOTE SHIFT
-0.7782 INSERT QUOTE SIERRA
-0.4260 INSERT SHOOP ENTER
-0.9031 INSERT SHOOP SPACE
-0.3010 INSERT SIERRA TANGO
-0.6021 INSERT SPACE MINUS
-0.6021 INSERT SPACE PLUS
-0.6021 INSERT TICK LISTEN
-0.6021 INSERT TICK TILDE
-0.3010 INSERT TILDE BRAVO
-0.3010 INSERT UNIFORM SIERRA
-0.6021 INSERT VICTOR INDIA
-0.6021 INSERT VICTOR OSCAR
-0.3010 INSERT WHILE PAREN
-0.6021 INSERT WHISKEY HOTEL
-0.6021 INSERT WHISKEY INDIA
-0.3010 INSERT YANKEE OSCAR
-0.3010 INSERT ZULU BRACKET
-0.3010 ITERATE HOTEL UNIFORM
-0.3010 ITERATE QUEBEC SPACE
-0.6021 ITERATE SPACE INDIA
-0.9031 ITERATE SPACE LIMA
-0.9031 ITERATE SPACE SIERRA
-0.6021 ITERATE TANGO OSCAR
-0.6021 ITERATE TANGO UNIFORM
-0.3010 ITERATE XRAY SPACE
-0.3010 ITERATE ZULU SPACE
-0.6021 JULIET ALPHA BRAVO
-0.6021 JULIET ALPHA NOVEMBER
-0.9031 JULIET ASSIGN FOUR
-0.9031 JULIET ASSIGN KILO
-0.9031 JULIET ASSIGN ONE
-0.9031 JULIET ASSIGN TWO
-0.6021 JULIET COMMA ENTER
-0.6021 JULIET COMMA SPACE
-0.3010 JULIET DOT WHISKEY
-0.6021 JULIET ECHO FOXTROT
-0.6021 JULIET ECHO SIERRA
-0.6021 JULIET ESCAPE </s>
-0.6021 JULIET ESCAPE UP
-0.3010 JULIET INDIA LIMA
-0.3010 JULIET MINUS MIKE
-0.7782 JULIET OSCAR BRAVO
-0.7782 JULIET OSCAR INDIA
-0.7782 JULIET OSCAR VICTOR
-0.6021 JULIET SPACE LIMA
-0.6021 JULIET SPACE TIMES
-0.6021 JULIET UNIFORM MIKE
-0.6021 JULIET UNIFORM NOVEMBER
-0.3010 JULIET ZERO SHOOP
-0.3010 KEES DELTA DELETE
-0.3010 KEES EQUALS RIGHT
-0.3010 KEES FOXTROT REPLACE
-0.3010 KEES GOLF INSERT
-0.3010 KEES HSALS </s>
-0.3010 KEES SIERRA VISUALMODE
-0.3010 KEES XRAY </s>
-0.3010 KILO ALPHA KILO
-0.3010 KILO ASSIGN JULIET
-0.3010 KILO DELETE WORD
-0.6021 KILO DOT FOXTROT
-0.6021 KILO DOT XRAY
-0.3010 KILO ESCAPE </s>
-0.7782 KILO INDIA LIMA
-0.7782 KILO INDIA NOVEMBER
-0.7782 KILO INDIA SIERRA
-0.3010 KILO NERAP ESCAPE
-0.6021 KILO PAREN NERAP
-0.6021 KILO PAREN ZERO
-0.3010 KILO QUOTE COLON
-0.6021 KILO SIERRA </s>
-0.6021 KILO SIERRA ECHO
-0.3010 KILO SOUTH COMPLETE
-0.7782 KILO SPACE OR
-0.7782 KILO SPACE PLUS
-0.7782 KILO SPACE SLASH
-0.3010 KILO TICK </s>
-0.3010 KILO TIMES UNIFORM
-0.3010 LEFT BACK ZERO
-0.6021 LEFT DELETE DOLLA
-0.6021 LEFT DELETE DOWN
-0.7782 LEFT INSERT LIMA
-0.7782 LEFT INSERT PAREN
-0.7782 LEFT INSERT TILDE
-1.6990 LEFT LEFT </s>
-1.6990 LEFT LEFT BACK
-1.6990 LEFT LEFT DELETE
-1.3979 LEFT LEFT INSERT
-0.5528 LEFT LEFT LEFT
-1.6990 LEFT LEFT MATCH
-1.6990 LEFT LEFT PASTE
-1.6990 LEFT LEFT REPLACE
-1.3979 LEFT LEFT XRAY
-1.6990 LEFT LEFT ZERO
-0.3010 LEFT MATCH APPEND
-0.3010 LEFT PASTE SAVE
-0.6021 LEFT REPLACE BRACKET
-0.6021 LEFT REPLACE WHISKEY
-0.6021 LEFT RIGHT INSERT
-0.6021 LEFT RIGHT NEWLINE
-0.3010 LEFT SPACE SHOOP
-0.3010 LEFT VISUALMODE DOLLA
-0.6021 LEFT XRAY SAVE
-0.6021 LEFT XRAY XRAY
-0.3010 LEFT ZERO ITERATE
-0.7782 LESSER SPACE DOT
-0.7782 LESSER SPACE LIMA
-0.7782 LESSER SPACE SIERRA
-1.0000 LIMA ALPHA </s>
-1.0000 LIMA ALPHA CHARLIE
-1.0000 LIMA ALPHA MIKE
-1.0000 LIMA ALPHA SHOOP
-1.0000 LIMA ALPHA SIERRA
-1.0000 LIMA ASSIGN KILO
-0.6990 LIMA ASSIGN LIMA
-0.6990 LIMA ASSIGN MIKE
-0.3010 LIMA COMMA SPACE
-0.3010 LIMA DELTA SIERRA
-1.4472 LIMA ECHO </s>
-1.7482 LIMA ECHO ASSIGN
-1.7482 LIMA ECHO ESCAPE
-1.2711 LIMA ECHO NERAP
-0.5721 LIMA ECHO NOVEMBER
-1.2711 LIMA ECHO PAREN
-1.4472 LIMA ECHO SIERRA
-1.7482 LIMA ECHO TANGO
-0.3010 LIMA ENTER </s>
-0.3010 LIMA ESCAPE ONE
-0.3010 LIMA FOXTROT DOT
-1.7634 LIMA INDIA </s>
-0.3832 LIMA INDIA NOVEMBER
-1.7634 LIMA INDIA OSCAR
-1.4624 LIMA INDIA SIERRA
-1.7634 LIMA INDIA VICTOR
-1.0792 LIMA LIMA ASSIGN
-1.0792 LIMA LIMA ENTER
-0.4771 LIMA LIMA SCORE
-0.3010 LIMA MIKE ALPHA
-0.4771 LIMA NERAP ESCAPE
-0.7782 LIMA NERAP SPACE
-1.5051 LIMA OSCAR </s>
-0.4638 LIMA OSCAR GOLF
-1.5051 LIMA OSCAR NOVEMBER
-1.2041 LIMA OSCAR OR
-1.5051 LIMA OSCAR SHOOP
-0.6021 LIMA PAREN </s>
-0.6021 LIMA PAREN LIMA
-0.3010 LIMA SCORE LIMA
-1.0792 LIMA SHOOP ALPHA
-1.0792 LIMA SHOOP COMMA
-1.0792 LIMA SHOOP ECHO
-1.0792 LIMA SHOOP MIKE
-1.0792 LIMA SHOOP SHOOP
-1.0792 LIMA SHOOP WHISKEY
-0.3010 LIMA SIERRA QUOTE
-0.3010 LIMA SOUTH SOUTH
-0.7782 LIMA SPACE EQUALS
-0.7782 LIMA SPACE MINUS
-0.7782 LIMA SPACE SHOOP
-0.3010 LIMA TANGO ECHO
-0.3010 LIMA TEKCARB ENTER
-0.3010 LIMA UNIFORM PAPA
-0.3010 LISTEN CARROT APPEND
-0.3010 LISTEN GOTO HUG
-0.6021 LISTEN NETSIL </s>
-0.6021 LISTEN NETSIL PAREN
-0.3010 LISTEN QUESTION PLUS
-0.3010 LISTEN RETURN NETSIL
-0.6021 LISTEN SNORE </s>
-0.6021 LISTEN SNORE WAKE
-0.3010 LISTEN TAB EAST
-0.3010 LISTEN TANGO QUEBEC
-0.3010 LISTEN TICK PLUS
-0.3010 LISTEN WEST PLUS
-0.3010 LLEPS INSERT PAREN
-0.3010 LOW DOLLA DELETE
-0.3010 LOW PAGE PAGE
-0.7782 MATCH APPEND PAREN
-0.7782 MATCH APPEND SIERRA
-0.7782 MATCH APPEND WHISKEY
-0.3010 MATCH DELETE BIGBACK
-0.6021 MATCH DELTA COLON
-0.6021 MATCH DELTA QUOTE
-0.3010 MATCH INSERT COMMA
-0.3010 MATCH LEFT LEFT
-0.3010 MATCH PREVIOUS PREVIOUS
-0.3010 MATCH SIERRA SPACE
-0.6021 MATCH SPACE ESCAPE
-0.6021 MATCH SPACE INDIA
-0.3010 MATCH XRAY INSERT
-0.6021 MIC PAPA OSCAR
-0.6021 MIC PAPA YANKEE
-0.3010 MIDDLE DOWN TAB
-0.3010 MIDDLE FIVE SEEK
-0.3010 MIDDLE VISUALMODE END
-1.7324 MIKE ALPHA ENTER
-1.4314 MIKE ALPHA LIMA
-0.8873 MIKE ALPHA NOVEMBER
-1.7324 MIKE ALPHA OSCAR
-0.8293 MIKE ALPHA PAPA
-1.7324 MIKE ALPHA SOUTH
-0.9542 MIKE ALPHA TANGO
-1.7324 MIKE ALPHA XRAY
-0.3010 MIKE AND SPACE
-0.6021 MIKE CAPITALIZE FOXTROT
-0.6021 MIKE CAPITALIZE LIMA
-0.3010 MIKE COLON ENTER
-0.3010 MIKE DELTA </s>
-0.6021 MIKE DOT NOVEMBER
-0.6021 MIKE DOT SOUTH
-1.2553 MIKE ECHO </s>
-0.7782 MIKE ECHO ALPHA
-1.2553 MIKE ECHO ASSIGN
-1.2553 MIKE ECHO COMMA
-0.9542 MIKE ECHO NERAP
-1.2553 MIKE ECHO SPACE
-0.6021 MIKE EQUALS ONE
-0.6021 MIKE EQUALS TICK
-0.4771 MIKE INDIA NOVEMBER
-0.7782 MIKE INDIA OSCAR
-0.3010 MIKE INSERT ONE
-0.4472 MIKE MIKE ALPHA
-1.1461 MIKE MIKE AND
-1.1461 MIKE MIKE OSCAR
-0.3010 MIKE NERAP ESCAPE
-0.9031 MIKE OSCAR ENTER
-0.6021 MIKE OSCAR NOVEMBER
-0.9031 MIKE OSCAR SLASH
-0.5229 MIKE PAPA OSCAR
-1.0000 MIKE PAPA SHOOP
-1.0000 MIKE PAPA SPACE
-0.6021 MIKE SCORE INDIA
-0.6021 MIKE SCORE YANKEE
-0.3010 MIKE SIERRA UNIFORM
-1.2041 MIKE SPACE ELSE
-1.2041 MIKE SPACE INDIA
-1.2041 MIKE SPACE LIMA
-1.2041 MIKE SPACE MINUS
-1.2041 MIKE SPACE PLUS
-1.2041 MIKE SPACE SIERRA
-1.2041 MIKE SPACE VICTOR
-1.2041 MIKE SPACE WHISKEY
-0.3010 MIKE WHISKEY SPACE
-0.3010 MIKE YANKEE SCORE
-0.3010 MINUS MIKE SCORE
-1.1461 MINUS SPACE MIKE
-0.8451 MINUS SPACE ONE
-1.1461 MINUS SPACE PAREN
-1.1461 MINUS SPACE SPACE
-1.1461 MINUS SPACE XRAY
-1.1461 MINUS SPACE YANKEE
-0.3010 MINUS WHISKEY SPACE
-0.3010 MINUS YANKEE SPACE
-0.3010 NERAP APPEND COLON
-1.3802 NERAP COLON </s>
-0.3388 NERAP COLON ENTER
-0.3010 NERAP COMMA SPACE
-1.2553 NERAP ENTER </s>
-1.2553 NERAP ENTER ALPHA
-1.2553 NERAP ENTER CHARLIE
-1.2553 NERAP ENTER GOLF
-0.9542 NERAP ENTER LIMA
-1.2553 NERAP ENTER RETURN
-1.2553 NERAP ENTER SHOOP
-1.2553 NERAP ENTER WHILE
-1.6232 NERAP ESCAPE </s>
-1.3222 NERAP ESCAPE BACK
-1.6232 NERAP ESCAPE BIGBACK
-1.6232 NERAP ESCAPE CARROT
-0.9243 NERAP ESCAPE DOWN
-1.6232 NERAP ESCAPE MATCH
-0.7782 NERAP ESCAPE SAVE
-1.1461 NERAP ESCAPE UP
-0.3010 NERAP HOTEL SHOOP
-0.3010 NERAP NERAP COLON
-0.3010 NERAP SHOOP TICK
-0.6690 NERAP SPACE ALPHA
-1.1461 NERAP SPACE IF
-0.8451 NERAP SPACE LESSER
-1.1461 NERAP SPACE MINUS
-0.3010 NETSIL COLON ENTER
-0.3010 NETSIL COMMA SPACE
-0.3010 NETSIL CURLY ENTER
-0.3010 NETSIL ESCAPE SAVE
-0.3010 NETSIL PAREN MIKE
-0.3010 NETSIL SAVE </s>
-0.6021 NETSIL SPACE EQUALS
-0.6021 NETSIL SPACE HSALS
-0.3010 NETSIL TICK SNORE
-0.3010 NEWLINE BRAVO ASSIGN
-0.3010 NEWLINE CHARLIE OSCAR
-0.3010 NEWLINE DEFINE SPACE
-0.6021 NEWLINE ENTER DEFINE
